{"learner":{"attributes":{"best_iteration":"150","best_score":"3.839743048775875","scikit_learn":"{\"_estimator_type\": \"regressor\"}"},"feature_names":["tgt_prod","def_unit","min_threshold","max_cap","stock_avl","downtime_hrs","shortages","year","month","day","dayofweek","dayofyear","weekofyear","quarter","act_prod_lag_1","act_prod_lag_2","act_prod_lag_3","act_prod_lag_7","stock_avl_lag_1","stock_avl_lag_2","stock_avl_lag_3","stock_avl_lag_7","downtime_hrs_lag_1","downtime_hrs_lag_2","downtime_hrs_lag_3","downtime_hrs_lag_7","shortages_lag_1","shortages_lag_2","shortages_lag_3","shortages_lag_7","eff_perc_lag_1","eff_perc_lag_2","eff_perc_lag_3","eff_perc_lag_7","def_unit_lag_1","def_unit_lag_2","def_unit_lag_3","def_unit_lag_7","act_prod_roll_mean_3","act_prod_roll_std_3","act_prod_roll_mean_7","act_prod_roll_std_7","act_prod_roll_mean_14","act_prod_roll_std_14","downtime_hrs_roll_mean_3","downtime_hrs_roll_std_3","downtime_hrs_roll_mean_7","downtime_hrs_roll_std_7","downtime_hrs_roll_mean_14","downtime_hrs_roll_std_14","eff_perc_roll_mean_3","eff_perc_roll_std_3","eff_perc_roll_mean_7","eff_perc_roll_std_7","eff_perc_roll_mean_14","eff_perc_roll_std_14","def_unit_roll_mean_3","def_unit_roll_std_3","def_unit_roll_mean_7","def_unit_roll_std_7","def_unit_roll_mean_14","def_unit_roll_std_14","shortages_roll_mean_3","shortages_roll_std_3","shortages_roll_mean_7","shortages_roll_std_7","shortages_roll_mean_14","shortages_roll_std_14","shift_Night","stn_status_Maintenance","stn_status_Paused","stn_status_Shortage Pause","station_key_Line A_S2","station_key_Line A_S3","station_key_Line B_S1","station_key_Line B_S2","station_key_Line B_S3","station_key_Line C_S1","station_key_Line C_S2","station_key_Line C_S3","station_key_Line D_S1","station_key_Line D_S2","station_key_Line D_S3"],"feature_types":["int","int","int","int","int","float","int","int","int","int","int","int","int","int","float","float","float","float","float","float","float","float","float","float","float","float","float","float","float","float","float","float","float","float","float","float","float","float","float","float","float","float","float","float","float","float","float","float","float","float","float","float","float","float","float","float","float","float","float","float","float","float","float","float","float","float","float","float","i","i","i","i","i","i","i","i","i","i","i","i","i","i","i"],"gradient_booster":{"model":{"gbtree_model_param":{"num_parallel_tree":"1","num_trees":"201"},"iteration_indptr":[0,1,2,3,4,5,6,7,8,9,10,11,12,13,14,15,16,17,18,19,20,21,22,23,24,25,26,27,28,29,30,31,32,33,34,35,36,37,38,39,40,41,42,43,44,45,46,47,48,49,50,51,52,53,54,55,56,57,58,59,60,61,62,63,64,65,66,67,68,69,70,71,72,73,74,75,76,77,78,79,80,81,82,83,84,85,86,87,88,89,90,91,92,93,94,95,96,97,98,99,100,101,102,103,104,105,106,107,108,109,110,111,112,113,114,115,116,117,118,119,120,121,122,123,124,125,126,127,128,129,130,131,132,133,134,135,136,137,138,139,140,141,142,143,144,145,146,147,148,149,150,151,152,153,154,155,156,157,158,159,160,161,162,163,164,165,166,167,168,169,170,171,172,173,174,175,176,177,178,179,180,181,182,183,184,185,186,187,188,189,190,191,192,193,194,195,196,197,198,199,200,201],"tree_info":[0,0,0,0,0,0,0,0,0,0,0,0,0,0,0,0,0,0,0,0,0,0,0,0,0,0,0,0,0,0,0,0,0,0,0,0,0,0,0,0,0,0,0,0,0,0,0,0,0,0,0,0,0,0,0,0,0,0,0,0,0,0,0,0,0,0,0,0,0,0,0,0,0,0,0,0,0,0,0,0,0,0,0,0,0,0,0,0,0,0,0,0,0,0,0,0,0,0,0,0,0,0,0,0,0,0,0,0,0,0,0,0,0,0,0,0,0,0,0,0,0,0,0,0,0,0,0,0,0,0,0,0,0,0,0,0,0,0,0,0,0,0,0,0,0,0,0,0,0,0,0,0,0,0,0,0,0,0,0,0,0,0,0,0,0,0,0,0,0,0,0,0,0,0,0,0,0,0,0,0,0,0,0,0,0,0,0,0,0,0,0,0,0,0,0,0,0,0,0,0,0],"trees":[{"base_weights":[-1.1405721E0,-5.360949E1,2.373272E1,-3.3825402E0,-3.3239536E1,2.8638329E1,-3.344556E0,-3.0484235E0,-3.0341E1,4.4615397E0,3.5748596E1,-1.9092783E0,-2.1996513E1,-4.2692294E0,1.3108129E1,3.757154E1,-2.9862108E0,-1.2161156E0,-8.130431E-1,-1.7041698E0,-2.3226085E0,5.146918E0,1.705541E1,2.2500008E1,4.494536E1,-9.788813E0,3.827497E0,-2.3985443E0,8.013051E0,5.5947864E-1,9.327763E-1,1.1918057E1,2.6389345E1,3.1675154E1,5.003065E1,-5.8149034E-1,-2.671736E-1,5.883188E-2,3.1195688E-1,-2.2260845E-1,-1.2934494E-2,-1.4195633E-1,4.533114E-1,-5.0434496E-2,6.622178E-1,1.4472861E0,6.350149E-1,1.6112982E0,-1.1695633E-1,2.1439264E0,2.997937E0],"categories":[],"categories_nodes":[],"categories_segments":[],"categories_sizes":[],"default_left":[0,0,0,0,0,0,0,0,0,0,0,0,0,0,0,0,0,0,0,0,0,0,0,0,0,0,0,0,0,0,0,0,0,0,0,0,0,0,0,0,0,0,0,0,0,0,0,0,0,0,0],"id":0,"left_children":[1,3,5,-1,7,9,-1,-1,11,13,15,-1,17,19,21,23,-1,-1,-1,25,-1,27,29,31,33,35,37,39,41,-1,-1,43,45,47,49,-1,-1,-1,-1,-1,-1,-1,-1,-1,-1,-1,-1,-1,-1,-1,-1],"loss_changes":[9.252652E5,6.2964125E4,2.157515E5,0E0,5.785617E3,7.840041E4,0E0,0E0,4.920422E3,7.9825557E3,6.368053E4,0E0,2.0479883E2,5.655531E3,1.57775E3,3.755247E4,0E0,0E0,0E0,2.3182656E3,0E0,4.3011926E2,1.19762695E2,4.4596797E3,1.40713125E4,1.0971716E2,1.908393E2,2.5215012E1,1.8574994E2,0E0,0E0,5.7913574E2,2.5719062E3,1.3306562E3,9.2161875E3,0E0,0E0,0E0,0E0,0E0,0E0,0E0,0E0,0E0,0E0,0E0,0E0,0E0,0E0,0E0,0E0],"parents":[2147483647,0,0,1,1,2,2,4,4,5,5,8,8,9,9,10,10,12,12,13,13,14,14,15,15,19,19,21,21,22,22,23,23,24,24,25,25,26,26,27,27,28,28,31,31,32,32,33,33,34,34],"right_children":[2,4,6,-1,8,10,-1,-1,12,14,16,-1,18,20,22,24,-1,-1,-1,26,-1,28,30,32,34,36,38,40,42,-1,-1,44,46,48,50,-1,-1,-1,-1,-1,-1,-1,-1,-1,-1,-1,-1,-1,-1,-1,-1],"split_conditions":[5.5E1,2E1,1E0,-3.3825402E0,1E0,9.5E1,-3.344556E0,-3.0484235E0,4E1,8.1E1,1E0,-1.9092783E0,5E1,1E0,1E0,4.2381832E1,-2.9862108E0,-1.2161156E0,-8.130431E-1,6.7E1,-2.3226085E0,3.6444748E1,8.5E1,5.292857E1,1.17E2,6.2E1,7.4E1,2E0,3E0,5.5947864E-1,9.327763E-1,1.6E1,1E0,1E0,1.6104057E0,-5.8149034E-1,-2.671736E-1,5.883188E-2,3.1195688E-1,-2.2260845E-1,-1.2934494E-2,-1.4195633E-1,4.533114E-1,-5.0434496E-2,6.622178E-1,1.4472861E0,6.350149E-1,1.6112982E0,-1.1695633E-1,2.1439264E0,2.997937E0],"split_indices":[4,4,70,0,6,4,0,0,4,4,69,0,4,69,6,43,0,0,0,4,0,43,4,42,4,4,4,8,9,0,0,64,76,76,61,0,0,0,0,0,0,0,0,0,0,0,0,0,0,0,0],"split_type":[0,0,0,0,0,0,0,0,0,0,0,0,0,0,0,0,0,0,0,0,0,0,0,0,0,0,0,0,0,0,0,0,0,0,0,0,0,0,0,0,0,0,0,0,0,0,0,0,0,0,0],"sum_hessian":[7.07E2,2.27E2,4.8E2,1.33E2,9.4E1,4.56E2,2.4E1,7E0,8.7E1,1.04E2,3.52E2,4.3E1,4.4E1,5.2E1,5.2E1,3.46E2,6E0,2.9E1,1.5E1,5E1,2E0,1.8E1,3.4E1,1.15E2,2.31E2,2E1,3E1,5E0,1.3E1,9E0,2.5E1,3.2E1,8.3E1,6.6E1,1.65E2,1.3E1,7E0,1.5E1,1.5E1,2E0,3E0,1E0,1.2E1,3E0,2.9E1,6.9E1,1.4E1,6.5E1,1E0,9.9E1,6.6E1],"tree_param":{"num_deleted":"0","num_feature":"83","num_nodes":"51","size_leaf_vector":"1"}},{"base_weights":[-5.866112E-1,-5.009072E1,2.3117872E1,-3.2194676E0,-3.207681E1,-3.21016E0,2.8560282E1,-3.7750286E1,-8.9324856E-1,6.1775217E0,3.571506E1,-2.915055E0,-3.4640182E1,-6.851936E0,1.0766124E1,1.8457428E1,4.4929413E1,-2.0093768E0,-1.3831806E0,-9.48622E0,-8.981743E-1,2.7420812E0,1.2854665E1,7.925205E0,2.4099352E1,3.1767742E1,4.958423E1,-5.3306407E-1,-2.8904626E-1,-1.3036932E-1,-1.44948E-1,5.4135895E0,-5.309372E-1,7.3664455E0,1.5963435E1,-8.9882404E-1,9.967807E0,1.915008E1,2.7193275E1,1.2740697E0,1.7625412E0,1.8289365E0,5.4995857E1,-2.9483337E-2,2.2359371E-2,-2.7592216E-2,3.4869644E-1,-1.8112908E-1,1.3334472E-1,1.4635527E-1,4.6416822E-1,4.1197768E-1,8.542067E-1,2.0565705E-1,-2.865512E-1,2.920936E-1,6.07016E-1,1.1716824E-1,9.8010296E-1,1.4276123E-1,1.3840761E0,2.2252896E0,2.9081504E0],"categories":[],"categories_nodes":[],"categories_segments":[],"categories_sizes":[],"default_left":[0,0,0,0,0,0,0,0,0,0,0,0,0,0,0,0,0,0,0,0,0,0,0,0,0,0,0,0,0,0,0,0,0,0,0,0,0,0,0,0,0,0,0,0,0,0,0,0,0,0,0,0,0,0,0,0,0,0,0,0,0,0,0],"id":1,"left_children":[1,3,5,-1,7,-1,9,11,-1,13,15,-1,17,19,21,23,25,-1,-1,27,29,31,33,35,37,39,41,-1,-1,-1,43,45,47,49,51,53,55,57,59,-1,-1,-1,61,-1,-1,-1,-1,-1,-1,-1,-1,-1,-1,-1,-1,-1,-1,-1,-1,-1,-1,-1,-1],"loss_changes":[8.190661E5,5.6146375E4,2.2614556E5,0E0,7.5499062E3,0E0,7.104331E4,2.582336E3,0E0,6.5905513E3,5.275972E4,0E0,1.4038594E3,4.4631262E2,1.3221924E3,6.8802266E3,1.1841875E4,0E0,0E0,2.5447021E1,1.2496298E1,1.602644E2,9.743506E2,7.839907E2,6.583203E2,4.1551172E2,9.249281E3,0E0,0E0,0E0,2.3703613E0,9.6929504E1,9.8640076E1,1.8557312E2,2.0547949E2,2.4154187E2,2.4280518E2,2.0474316E2,4.5569922E2,0E0,0E0,0E0,1.09925E3,0E0,0E0,0E0,0E0,0E0,0E0,0E0,0E0,0E0,0E0,0E0,0E0,0E0,0E0,0E0,0E0,0E0,0E0,0E0,0E0],"parents":[2147483647,0,0,1,1,2,2,4,4,6,6,7,7,9,9,10,10,12,12,13,13,14,14,15,15,16,16,19,19,20,20,21,21,22,22,23,23,24,24,25,25,26,26,30,30,31,31,32,32,33,33,34,34,35,35,36,36,37,37,38,38,42,42],"right_children":[2,4,6,-1,8,-1,10,12,-1,14,16,-1,18,20,22,24,26,-1,-1,28,30,32,34,36,38,40,42,-1,-1,-1,44,46,48,50,52,54,56,58,60,-1,-1,-1,62,-1,-1,-1,-1,-1,-1,-1,-1,-1,-1,-1,-1,-1,-1,-1,-1,-1,-1,-1,-1],"split_conditions":[5.6E1,2E1,6E1,-3.2194676E0,4.5E1,-3.21016E0,9.5E1,1.3E1,-8.9324856E-1,7.2E1,1.04E2,-2.915055E0,3.4E1,6.5E1,8.2E1,9E1,1.15E2,-2.0093768E0,-1.3831806E0,6.2E1,6.7E1,9.574271E-1,8.3E1,7.5E1,9.6E1,1.02E2,1.16E2,-5.3306407E-1,-2.8904626E-1,-1.3036932E-1,7E1,6E-1,1.0769231E0,7.5E1,1E-1,2.3214285E1,5.4666668E1,2.0828445E1,5.4546154E1,1.2740697E0,1.7625412E0,1.8289365E0,1.26E2,-2.9483337E-2,2.2359371E-2,-2.7592216E-2,3.4869644E-1,-1.8112908E-1,1.3334472E-1,1.4635527E-1,4.6416822E-1,4.1197768E-1,8.542067E-1,2.0565705E-1,-2.865512E-1,2.920936E-1,6.07016E-1,1.1716824E-1,9.8010296E-1,1.4276123E-1,1.3840761E0,2.2252896E0,2.9081504E0],"split_indices":[4,4,0,0,4,0,4,0,0,4,0,0,4,4,0,0,4,0,0,4,4,59,4,0,0,4,0,0,0,0,4,58,60,4,5,66,38,43,54,0,0,0,4,0,0,0,0,0,0,0,0,0,0,0,0,0,0,0,0,0,0,0,0],"split_type":[0,0,0,0,0,0,0,0,0,0,0,0,0,0,0,0,0,0,0,0,0,0,0,0,0,0,0,0,0,0,0,0,0,0,0,0,0,0,0,0,0,0,0,0,0,0,0,0,0,0,0,0,0,0,0,0,0,0,0,0,0,0,0],"sum_hessian":[6.96E2,2.25E2,4.71E2,1.24E2,1.01E2,2.7E1,4.44E2,7.1E1,3E1,1.08E2,3.36E2,7E0,6.4E1,2.8E1,8E1,1.18E2,2.18E2,3.3E1,3.1E1,1.9E1,9E0,1.7E1,6.3E1,4.2E1,7.6E1,5.9E1,1.59E2,1.3E1,6E0,2E0,7E0,9E0,8E0,2.4E1,3.9E1,8E0,3.4E1,3.2E1,4.4E1,2.4E1,3.5E1,4.9E1,1.1E2,4E0,3E0,2E0,7E0,4E0,4E0,8E0,1.6E1,6E0,3.3E1,4E0,4E0,1.3E1,2.1E1,1E0,3.1E1,1E0,4.3E1,2.9E1,8.1E1],"tree_param":{"num_deleted":"0","num_feature":"83","num_nodes":"63","size_leaf_vector":"1"}},{"base_weights":[-1.7403316E-1,-4.9199085E1,2.2211733E1,-3.0872495E0,-3.2822643E1,-3.0662944E0,2.7866919E1,-2.877274E0,-2.9676004E1,5.14246E0,3.4437237E1,-1.8677975E0,-2.0591507E1,-5.4503994E0,1.067482E1,2.2548063E1,4.7033012E1,-1.1752322E0,-7.619837E-1,-9.168734E0,-2.2943544E-1,2.8542209E0,1.2834344E1,1.1825661E1,2.8495525E1,3.443474E1,5.3591755E1,-5.160374E-1,-2.6951566E-1,-1.7624292E0,1.1587186E0,1.5300064E-1,6.3053613E0,6.711578E0,1.4860168E1,4.847068E0,1.53634E1,2.4872002E1,3.1752697E1,1.2956309E0,1.9455475E0,4.4542538E1,2.9585664E0,-2.653513E-2,-1.19766235E-1,9.020805E-3,8.089002E-2,-1.059742E-1,1.0106188E-1,5.038948E-2,4.111416E-1,1.3959992E-1,3.941531E-1,4.492066E-1,8.043377E-1,-2.9764993E-3,3.2429537E-1,2.2945356E-1,8.019919E-1,1.2577308E0,2.049429E-1,1.0409168E0,1.6422644E0,2.2506013E0,5.8539146E-1],"categories":[],"categories_nodes":[],"categories_segments":[],"categories_sizes":[],"default_left":[0,0,0,0,0,0,0,0,0,0,0,0,0,0,0,0,0,0,0,0,0,0,0,0,0,0,0,0,0,0,0,0,0,0,0,0,0,0,0,0,0,0,0,0,0,0,0,0,0,0,0,0,0,0,0,0,0,0,0,0,0,0,0,0,0],"id":2,"left_children":[1,3,5,-1,7,-1,9,-1,11,13,15,-1,17,19,21,23,25,-1,-1,27,29,31,33,35,37,39,41,-1,-1,43,45,47,49,51,53,55,57,59,61,-1,-1,63,-1,-1,-1,-1,-1,-1,-1,-1,-1,-1,-1,-1,-1,-1,-1,-1,-1,-1,-1,-1,-1,-1,-1],"loss_changes":[7.73707E5,4.3379375E4,2.3036062E5,0E0,5.916086E3,0E0,6.760825E4,0E0,5.440172E3,6.0943438E3,5.1652656E4,0E0,3.121953E2,6.967748E2,1.1118047E3,1.1333133E4,1.22015E4,0E0,0E0,3.577661E1,3.6090664E1,1.4819191E2,5.576572E2,1.5796582E3,5.911328E2,1.3186719E3,2.9183438E3,0E0,0E0,4.965229E0,3.7502108E0,4.673938E1,6.2818665E1,4.6866394E1,1.3656543E2,1.9337311E2,2.4707129E2,2.4914062E2,9.128906E0,0E0,0E0,1.8211719E2,0E0,0E0,0E0,0E0,0E0,0E0,0E0,0E0,0E0,0E0,0E0,0E0,0E0,0E0,0E0,0E0,0E0,0E0,0E0,0E0,0E0,0E0,0E0],"parents":[2147483647,0,0,1,1,2,2,4,4,6,6,8,8,9,9,10,10,12,12,13,13,14,14,15,15,16,16,19,19,20,20,21,21,22,22,23,23,24,24,25,25,26,26,29,29,30,30,31,31,32,32,33,33,34,34,35,35,36,36,37,37,38,38,41,41],"right_children":[2,4,6,-1,8,-1,10,-1,12,14,16,-1,18,20,22,24,26,-1,-1,28,30,32,34,36,38,40,42,-1,-1,44,46,48,50,52,54,56,58,60,62,-1,-1,64,-1,-1,-1,-1,-1,-1,-1,-1,-1,-1,-1,-1,-1,-1,-1,-1,-1,-1,-1,-1,-1,-1,-1],"split_conditions":[5.5E1,1.6E1,6E1,-3.0872495E0,1.3E1,-3.0662944E0,9.4E1,-2.877274E0,3.8E1,7.3E1,1.14E2,-1.8677975E0,4.8E1,6.5E1,8.3E1,9.4E1,1.24E2,-1.1752322E0,-7.619837E-1,6.2E1,7E1,2.2666666E1,8.2E1,8.4E1,1.04E2,1.06E2,1.29E2,-5.160374E-1,-2.6951566E-1,1.67E2,7.1E1,7.8E1,1E0,7.5E1,1E0,1.17E2,7.412864E-1,7.8333336E1,1E2,1.2956309E0,1.9455475E0,1.28E2,2.9585664E0,-2.653513E-2,-1.19766235E-1,9.020805E-3,8.089002E-2,-1.059742E-1,1.0106188E-1,5.038948E-2,4.111416E-1,1.3959992E-1,3.941531E-1,4.492066E-1,8.043377E-1,-2.9764993E-3,3.2429537E-1,2.2945356E-1,8.019919E-1,1.2577308E0,2.049429E-1,1.0409168E0,1.6422644E0,2.2506013E0,5.8539146E-1],"split_indices":[4,4,0,0,0,0,4,0,4,4,0,0,4,4,0,0,4,0,0,4,4,64,4,0,0,4,0,0,0,3,4,0,15,4,6,4,49,62,4,0,0,0,0,0,0,0,0,0,0,0,0,0,0,0,0,0,0,0,0,0,0,0,0,0,0],"split_type":[0,0,0,0,0,0,0,0,0,0,0,0,0,0,0,0,0,0,0,0,0,0,0,0,0,0,0,0,0,0,0,0,0,0,0,0,0,0,0,0,0,0,0,0,0,0,0,0,0,0,0,0,0,0,0,0,0,0,0,0,0,0,0,0,0],"sum_hessian":[7.03E2,2.2E2,4.83E2,1.23E2,9.7E1,3E1,4.53E2,9E0,8.8E1,1.02E2,3.51E2,4.6E1,4.2E1,3.5E1,6.7E1,1.82E2,1.69E2,2.5E1,1.7E1,2E1,1.5E1,1.5E1,5.2E1,6.6E1,1.16E2,6E1,1.09E2,1.4E1,6E0,7E0,8E0,9E0,6E0,1.4E1,3.8E1,2.3E1,4.3E1,5.9E1,5.7E1,2.3E1,3.7E1,4.5E1,6.4E1,3E0,4E0,3E0,5E0,4E0,5E0,2E0,4E0,4E0,1E1,8E0,3E1,6E0,1.7E1,3E0,4E1,5.8E1,1E0,7E0,5E1,4.4E1,1E0],"tree_param":{"num_deleted":"0","num_feature":"83","num_nodes":"65","size_leaf_vector":"1"}},{"base_weights":[-1.2623995E-2,-4.6447605E1,2.1619762E1,-2.8963134E0,-2.9284412E1,2.8486776E1,-7.062299E0,-2.7151213E0,-2.635974E1,4.365038E0,3.2459454E1,-2.897661E0,1.1413065E1,-3.24598E1,-1.8380672E1,5.4952536E0,-1.501431E0,1.7388205E1,3.7952465E1,-2.7710984E0,2.5674204E1,-1.8288063E0,-1.3409735E0,-1.036259E0,-6.545739E-1,-1.6968588E1,6.6206403E0,1.8936935E1,-1.3966597E1,3.3540493E1,4.7917507E1,-8.129165E0,3.3362584E0,8.435736E-1,1.633118E0,-1.501431E0,2.2878686E-1,-7.768259E-1,9.414111E0,1.6103966E1,3.202819E1,8.380249E-1,-2.001908E0,3.4516582E1,8.4840555E0,2.9605991E1,5.360166E1,-4.8681512E-1,-4.50142E0,9.549351E-1,3.4709594E-1,-3.3800355E-1,8.904641E-2,2.1182624E-1,6.175601E-1,6.977613E-1,1.2311505E0,1.7491064E0,7.5796664E-1,1.8733295E0,1.2124537E0,5.328308E-1,6.554591E-2,4.795676E-1,1.5648494E0,2.7080572E0,5.7075673E-1,-2.3873945E-1,-6.469593E-2,-9.632819E-3,1.06731795E-1],"categories":[],"categories_nodes":[],"categories_segments":[],"categories_sizes":[],"default_left":[0,0,0,0,0,0,0,0,0,0,0,0,0,0,0,0,0,0,0,0,0,0,0,0,0,0,0,0,0,0,0,0,0,0,0,0,0,0,0,0,0,0,0,0,0,0,0,0,0,0,0,0,0,0,0,0,0,0,0,0,0,0,0,0,0,0,0,0,0,0,0],"id":3,"left_children":[1,3,5,-1,7,9,11,-1,13,15,17,-1,19,21,23,25,-1,27,29,31,33,-1,-1,-1,-1,35,37,39,41,43,45,47,49,-1,-1,-1,-1,51,53,55,57,-1,-1,59,61,63,65,-1,67,69,-1,-1,-1,-1,-1,-1,-1,-1,-1,-1,-1,-1,-1,-1,-1,-1,-1,-1,-1,-1,-1],"loss_changes":[7.3328425E5,4.4010125E4,9.828731E4,0E0,5.519703E3,3.8381125E4,9.186356E4,0E0,3.6379023E3,2.419605E3,2.7901438E4,0E0,1.4635473E4,1.3348438E2,2.2469922E2,1.5533322E3,0E0,4.8291387E3,9.472156E3,1.237895E3,1.6634746E3,0E0,0E0,0E0,0E0,9.815118E2,1.143866E3,2.8220645E3,4.676576E3,4.0605312E3,6.2194844E3,7.2778564E1,1.4792326E2,0E0,0E0,0E0,0E0,2.5689792E2,5.5595557E2,1.0475762E3,2.171377E2,0E0,0E0,4.2709375E3,1.1070264E2,3.767129E2,7.034844E2,0E0,8.3644104E-1,1.6657028E1,0E0,0E0,0E0,0E0,0E0,0E0,0E0,0E0,0E0,0E0,0E0,0E0,0E0,0E0,0E0,0E0,0E0,0E0,0E0,0E0,0E0],"parents":[2147483647,0,0,1,1,2,2,4,4,5,5,6,6,8,8,9,9,10,10,12,12,13,13,14,14,15,15,17,17,18,18,19,19,20,20,25,25,26,26,27,27,28,28,29,29,30,30,31,31,32,32,37,37,38,38,39,39,40,40,43,43,44,44,45,45,46,46,48,48,49,49],"right_children":[2,4,6,-1,8,10,12,-1,14,16,18,-1,20,22,24,26,-1,28,30,32,34,-1,-1,-1,-1,36,38,40,42,44,46,48,50,-1,-1,-1,-1,52,54,56,58,-1,-1,60,62,64,66,-1,68,70,-1,-1,-1,-1,-1,-1,-1,-1,-1,-1,-1,-1,-1,-1,-1,-1,-1,-1,-1,-1,-1],"split_conditions":[5.6E1,2.1E1,1E0,-2.8963134E0,1E0,9.5E1,1E0,-2.7151213E0,4.1E1,1.19E2,6.0642857E1,-2.897661E0,8.3E1,3.3E1,5.1E1,5.163978E-1,-1.501431E0,6E-1,1.5384616E0,6.8E1,9.9E1,-1.8288063E0,-1.3409735E0,-1.036259E0,-6.545739E-1,1E0,7.5E1,4.4923153E1,1.01E2,1E0,1.18E2,6.2E1,7.5E1,8.435736E-1,1.633118E0,-1.501431E0,2.2878686E-1,6.3E1,1E-1,1E-1,1E0,8.380249E-1,-2.001908E0,1E0,2.2E1,5E0,4E0,-4.8681512E-1,6.6E1,7.1E1,3.4709594E-1,-3.3800355E-1,8.904641E-2,2.1182624E-1,6.175601E-1,6.977613E-1,1.2311505E0,1.7491064E0,7.5796664E-1,1.8733295E0,1.2124537E0,5.328308E-1,6.554591E-2,4.795676E-1,1.5648494E0,2.7080572E0,5.7075673E-1,-2.3873945E-1,-6.469593E-2,-9.632819E-3,1.06731795E-1],"split_indices":[4,4,5,0,6,4,6,0,4,29,42,0,4,4,4,59,0,5,60,4,4,0,0,0,0,1,4,43,4,76,4,4,4,0,0,0,0,4,5,5,58,0,0,74,28,11,8,0,4,4,0,0,0,0,0,0,0,0,0,0,0,0,0,0,0,0,0,0,0,0,0],"split_type":[0,0,0,0,0,0,0,0,0,0,0,0,0,0,0,0,0,0,0,0,0,0,0,0,0,0,0,0,0,0,0,0,0,0,0,0,0,0,0,0,0,0,0,0,0,0,0,0,0,0,0,0,0,0,0,0,0,0,0,0,0,0,0,0,0,0,0,0,0,0,0],"sum_hessian":[7.28E2,2.31E2,4.97E2,1.37E2,9.4E1,4.01E2,9.6E1,8E0,8.6E1,5.7E1,3.44E2,2.5E1,7.1E1,4.7E1,3.9E1,5.6E1,1E0,9.3E1,2.51E2,3.6E1,3.5E1,2.4E1,2.3E1,2.5E1,1.4E1,2E0,5.4E1,8.9E1,4E0,1.77E2,7.4E1,1.9E1,1.7E1,1.7E1,1.8E1,1E0,1E0,1.5E1,3.9E1,7.5E1,1.4E1,2E0,2E0,1.7E2,7E0,1.9E1,5.5E1,1.2E1,7E0,1.1E1,6E0,4E0,1.1E1,1.5E1,2.4E1,6.2E1,1.3E1,1.1E1,3E0,1.3E2,4E1,5E0,2E0,2E0,1.7E1,5.4E1,1E0,6E0,1E0,6E0,5E0],"tree_param":{"num_deleted":"0","num_feature":"83","num_nodes":"71","size_leaf_vector":"1"}},{"base_weights":[1.5377577E-1,-4.4482162E1,1.9901485E1,-2.7851746E0,-3.031789E1,-2.7750628E0,2.4370237E1,-3.4865707E1,-2.0165722E1,4.413813E0,3.0344902E1,-2.4909592E0,-3.2578163E1,-1.9711094E0,-1.7651686E1,-4.96543E0,9.9230175E0,1.5129145E1,3.8983047E1,-1.8393459E0,-1.3152014E0,-9.444051E-1,-5.8679897E-1,-8.368257E0,-1.5247048E-1,2.0465922E0,1.1545308E1,6.0698724E0,2.0233612E1,2.5038458E1,4.283774E1,-4.9287423E-1,-2.8560624E-1,-1.685648E0,9.764286E-1,-2.0002124E0,4.8258715E0,6.3390913E0,1.3785636E1,-3.4365404E0,8.0086E0,2.0956556E1,7.342575E0,2.548828E-1,1.2664751E0,3.1592667E1,4.774046E1,-1.1372208E-1,-2.6412202E-2,8.660126E-3,7.0533596E-2,-2.1267879E-1,9.49316E-3,2.9052088E-1,6.240781E-2,1.5295574E-1,3.808805E-1,4.4897166E-1,7.368144E-1,-2.597278E-1,9.055049E-2,2.6364195E-1,5.1815E-1,8.453164E-1,1.2241435E0,4.161882E-1,6.0915757E-2,1.6006733E0,2.0069733E-1,2.0965133E0,2.6522748E0],"categories":[],"categories_nodes":[],"categories_segments":[],"categories_sizes":[],"default_left":[0,0,0,0,0,0,0,0,0,0,0,0,0,0,0,0,0,0,0,0,0,0,0,0,0,0,0,0,0,0,0,0,0,0,0,0,0,0,0,0,0,0,0,0,0,0,0,0,0,0,0,0,0,0,0,0,0,0,0,0,0,0,0,0,0,0,0,0,0,0,0],"id":4,"left_children":[1,3,5,-1,7,-1,9,11,13,15,17,-1,19,-1,21,23,25,27,29,-1,-1,-1,-1,31,33,35,37,39,41,43,45,-1,-1,47,49,51,53,55,57,59,61,63,65,-1,-1,67,69,-1,-1,-1,-1,-1,-1,-1,-1,-1,-1,-1,-1,-1,-1,-1,-1,-1,-1,-1,-1,-1,-1,-1,-1],"loss_changes":[6.293645E5,3.31195E4,1.6814584E5,0E0,3.8677578E3,0E0,5.5667062E4,6.688281E2,9.0170996E2,5.681539E3,4.6727156E4,0E0,6.431406E2,0E0,5.0722656E0,6.702083E2,8.580425E2,5.9812285E3,1.1236656E4,0E0,0E0,0E0,0E0,3.8626953E1,3.2800365E1,1.5586636E2,5.7743896E2,9.3060876E2,6.2896484E2,1.7266406E2,8.305156E3,0E0,0E0,4.2503166E0,3.5924177E0,3.0417812E1,2.0927078E1,5.6373596E1,4.5868652E1,9.243487E1,2.094419E2,7.1439453E2,2.5913391E1,0E0,0E0,5.329922E2,1.5362188E3,0E0,0E0,0E0,0E0,0E0,0E0,0E0,0E0,0E0,0E0,0E0,0E0,0E0,0E0,0E0,0E0,0E0,0E0,0E0,0E0,0E0,0E0,0E0,0E0],"parents":[2147483647,0,0,1,1,2,2,4,4,6,6,7,7,8,8,9,9,10,10,12,12,14,14,15,15,16,16,17,17,18,18,23,23,24,24,25,25,26,26,27,27,28,28,29,29,30,30,33,33,34,34,35,35,36,36,37,37,38,38,39,39,40,40,41,41,42,42,45,45,46,46],"right_children":[2,4,6,-1,8,-1,10,12,14,16,18,-1,20,-1,22,24,26,28,30,-1,-1,-1,-1,32,34,36,38,40,42,44,46,-1,-1,48,50,52,54,56,58,60,62,64,66,-1,-1,68,70,-1,-1,-1,-1,-1,-1,-1,-1,-1,-1,-1,-1,-1,-1,-1,-1,-1,-1,-1,-1,-1,-1,-1,-1],"split_conditions":[5.5E1,1.6E1,6E1,-2.7851746E0,4.2E1,-2.7750628E0,9.5E1,1.3E1,9E0,7.3E1,1.03E2,-2.4909592E0,3.1E1,-1.9711094E0,5.2E1,6.5E1,8.1E1,8.9E1,1.13E2,-1.8393459E0,-1.3152014E0,-9.444051E-1,-5.8679897E-1,6E1,7E1,9E-1,8.3E1,7.5E1,1.13E2,1.04E2,1.18E2,-4.9287423E-1,-2.8560624E-1,6.9E1,7.1E1,1E0,8.5E1,7.7E1,1E0,6.7E1,8.4E1,9.6E1,3E0,2.548828E-1,1.2664751E0,4E0,1.37E2,-1.1372208E-1,-2.6412202E-2,8.660126E-3,7.0533596E-2,-2.1267879E-1,9.49316E-3,2.9052088E-1,6.240781E-2,1.5295574E-1,3.808805E-1,4.4897166E-1,7.368144E-1,-2.597278E-1,9.055049E-2,2.6364195E-1,5.1815E-1,8.453164E-1,1.2241435E0,4.161882E-1,6.0915757E-2,1.6006733E0,2.0069733E-1,2.0965133E0,2.6522748E0],"split_indices":[4,4,0,0,4,0,4,0,0,4,0,0,4,0,4,4,0,0,4,0,0,0,0,4,4,48,4,0,17,0,0,0,0,4,4,29,21,4,6,11,0,0,1,0,0,1,4,0,0,0,0,0,0,0,0,0,0,0,0,0,0,0,0,0,0,0,0,0,0,0,0],"split_type":[0,0,0,0,0,0,0,0,0,0,0,0,0,0,0,0,0,0,0,0,0,0,0,0,0,0,0,0,0,0,0,0,0,0,0,0,0,0,0,0,0,0,0,0,0,0,0,0,0,0,0,0,0,0,0,0,0,0,0,0,0,0,0,0,0,0,0,0,0,0,0],"sum_hessian":[7.12E2,2.18E2,4.94E2,1.2E2,9.8E1,2.7E1,4.67E2,6.6E1,3.2E1,1.08E2,3.59E2,6E0,6E1,2E0,3E1,4E1,6.8E1,1.31E2,2.28E2,3.3E1,2.7E1,2.3E1,7E0,2.3E1,1.7E1,1.2E1,5.6E1,4.8E1,8.3E1,5.1E1,1.77E2,1.3E1,1E1,7E0,1E1,5E0,7E0,1.8E1,3.8E1,8E0,4E1,7.8E1,5E0,1E0,5E1,5.6E1,1.21E2,4E0,3E0,4E0,6E0,2E0,3E0,5E0,2E0,6E0,1.2E1,8E0,3E1,6E0,2E0,2E1,2E1,3.9E1,3.9E1,4E0,1E0,5.5E1,1E0,6.2E1,5.9E1],"tree_param":{"num_deleted":"0","num_feature":"83","num_nodes":"71","size_leaf_vector":"1"}},{"base_weights":[-1.0861524E0,-4.1390564E1,1.8822502E1,-2.6439638E0,-2.6781693E1,-2.6445224E0,2.3428476E1,-3.027325E1,-6.577184E-1,4.264942E0,2.8968147E1,-2.456258E0,-2.7980991E1,-5.4811544E0,8.236463E0,1.4159233E1,3.6437557E1,-1.6653156E0,-1.0978073E0,-4.15205E-1,-9.336841E-1,2.6223E0,1.0230299E1,4.070352E0,1.785432E1,2.4619158E1,3.9690292E1,-1.4091139E-1,-8.649826E-2,5.1602755E0,-1.540666E-1,5.756798E0,1.3265728E1,-2.1174607E0,6.382663E0,1.1434033E1,1.9320955E1,2.4851075E-1,2.4896114E1,3.377743E1,4.791213E1,-2.6787568E-2,1.5114784E-2,-5.450821E-3,3.1716713E-1,-8.459053E-2,1.479969E-1,1.2679905E-1,3.7601113E-1,3.6499283E-1,6.928643E-1,1.7036152E-1,-2.4859662E-1,-4.848849E-2,3.5320845E-1,6.7753905E-1,2.2946422E-1,8.002888E-1,1.1541146E0,9.3700737E-1,1.3312716E0,1.4405428E0,1.8688042E0,1.8751507E0,2.6492972E0],"categories":[],"categories_nodes":[],"categories_segments":[],"categories_sizes":[],"default_left":[0,0,0,0,0,0,0,0,0,0,0,0,0,0,0,0,0,0,0,0,0,0,0,0,0,0,0,0,0,0,0,0,0,0,0,0,0,0,0,0,0,0,0,0,0,0,0,0,0,0,0,0,0,0,0,0,0,0,0,0,0,0,0,0,0],"id":5,"left_children":[1,3,5,-1,7,-1,9,11,-1,13,15,-1,17,19,21,23,25,-1,-1,-1,27,29,31,33,35,37,39,-1,41,43,45,47,49,51,53,55,57,-1,59,61,63,-1,-1,-1,-1,-1,-1,-1,-1,-1,-1,-1,-1,-1,-1,-1,-1,-1,-1,-1,-1,-1,-1,-1,-1],"loss_changes":[5.8974544E5,3.936822E4,1.6375067E5,0E0,4.7880703E3,0E0,4.902839E4,2.3417812E3,0E0,4.109362E3,3.9194438E4,0E0,1.803375E3,3.9020172E2,8.1270215E2,4.4754004E3,8.1720625E3,0E0,0E0,0E0,2.0511492E1,1.4876839E2,6.7047656E2,4.9999213E2,6.171289E2,1.70125E2,7.375375E3,0E0,1.9086242E0,6.926471E1,5.7681618E1,1.1724097E2,1.1777344E1,1.7464127E2,1.3211877E2,2.1309497E2,5.1588477E2,0E0,6.525391E1,9.070703E2,1.9739219E3,0E0,0E0,0E0,0E0,0E0,0E0,0E0,0E0,0E0,0E0,0E0,0E0,0E0,0E0,0E0,0E0,0E0,0E0,0E0,0E0,0E0,0E0,0E0,0E0],"parents":[2147483647,0,0,1,1,2,2,4,4,6,6,7,7,9,9,10,10,12,12,13,13,14,14,15,15,16,16,20,20,21,21,22,22,23,23,24,24,25,25,26,26,28,28,29,29,30,30,31,31,32,32,33,33,34,34,35,35,36,36,38,38,39,39,40,40],"right_children":[2,4,6,-1,8,-1,10,12,-1,14,16,-1,18,20,22,24,26,-1,-1,-1,28,30,32,34,36,38,40,-1,42,44,46,48,50,52,54,56,58,-1,60,62,64,-1,-1,-1,-1,-1,-1,-1,-1,-1,-1,-1,-1,-1,-1,-1,-1,-1,-1,-1,-1,-1,-1,-1,-1],"split_conditions":[5.6E1,1.7E1,6E1,-2.6439638E0,4.8E1,-2.6445224E0,9.5E1,1.3E1,-6.577184E-1,7.2E1,1.03E2,-2.456258E0,3.4E1,6.4E1,8.4E1,8.7E1,1.13E2,-1.6653156E0,-1.0978073E0,-4.15205E-1,6.7E1,9.574271E-1,8.3E1,7.5E1,1E0,1.04E2,1.3E2,-1.4091139E-1,7E1,5.7735026E-1,9.41E1,7.7E1,1E-1,4.1E1,1E0,1.26E2,9.6E1,2.4851075E-1,9.9E1,1.14E2,1.29E2,-2.6787568E-2,1.5114784E-2,-5.450821E-3,3.1716713E-1,-8.459053E-2,1.479969E-1,1.2679905E-1,3.7601113E-1,3.6499283E-1,6.928643E-1,1.7036152E-1,-2.4859662E-1,-4.848849E-2,3.5320845E-1,6.7753905E-1,2.2946422E-1,8.002888E-1,1.1541146E0,9.3700737E-1,1.3312716E0,1.4405428E0,1.8688042E0,1.8751507E0,2.6492972E0],"split_indices":[4,4,0,0,4,0,4,0,0,4,0,0,4,4,0,0,4,0,0,0,4,59,4,0,10,0,0,0,4,59,32,4,5,18,16,21,0,0,4,0,4,0,0,0,0,0,0,0,0,0,0,0,0,0,0,0,0,0,0,0,0,0,0,0,0],"split_type":[0,0,0,0,0,0,0,0,0,0,0,0,0,0,0,0,0,0,0,0,0,0,0,0,0,0,0,0,0,0,0,0,0,0,0,0,0,0,0,0,0,0,0,0,0,0,0,0,0,0,0,0,0,0,0,0,0,0,0,0,0,0,0,0,0],"sum_hessian":[7.33E2,2.42E2,4.91E2,1.34E2,1.08E2,2.9E1,4.62E2,8.5E1,2.3E1,1.04E2,3.58E2,7E0,7.8E1,3E1,7.4E1,1.21E2,2.37E2,3.9E1,3.9E1,1.8E1,1.2E1,2E1,5.4E1,3.3E1,8.8E1,5.3E1,1.84E2,3E0,9E0,1E1,1E1,2.3E1,3.1E1,9E0,2.4E1,1.8E1,7E1,1E0,5.2E1,1.1E2,7.4E1,4E0,5E0,2E0,8E0,7E0,3E0,9E0,1.4E1,4E0,2.7E1,3E0,6E0,2E0,2.2E1,1.3E1,5E0,4E1,3E1,1.4E1,3.8E1,5E1,6E1,2.7E1,4.7E1],"tree_param":{"num_deleted":"0","num_feature":"83","num_nodes":"65","size_leaf_vector":"1"}},{"base_weights":[4.446697E-1,-3.928584E1,1.956405E1,-4.8849003E1,-2.3760778E1,-2.4961433E0,2.3170444E1,-2.5358624E0,-1.9038467E0,-2.3487968E0,-2.1236898E1,1.33735485E1,3.4629776E1,-1.3133451E0,-1.4589082E1,5.048824E0,1.816655E1,1.59095955E1,4.1333805E1,-8.2387364E-1,-5.481352E-1,4.9229774E-1,8.105172E0,3.1384623E0,2.0989002E1,1.562112E0,2.0544542E1,3.4893814E1,4.716131E1,-1.5106423E0,2.801711E0,-1.7599564E0,9.821789E0,-2.9944062E0,7.1586556E0,1.4831626E1,2.2891645E1,-2.6491385E0,6.753418E0,5.625988E-1,1.0735573E0,1.7556117E0,4.5735493E-1,3.5085888E1,2.6610913E0,-2.356482E-1,6.4192295E-2,2.2401504E-2,2.5528058E-1,5.405738E-2,-2.7908117E-1,5.3492266E-1,1.6419646E-1,-2.1703338E-2,-2.527839E-1,1.5225326E-1,3.9368552E-1,7.594287E-1,7.630902E-2,7.2285116E-1,1.1944435E0,-2.0412038E-1,8.152485E-3,6.4761735E-2,3.7236214E-1,4.326994E-1,1.7860407E0],"categories":[],"categories_nodes":[],"categories_segments":[],"categories_sizes":[],"default_left":[0,0,0,0,0,0,0,0,0,0,0,0,0,0,0,0,0,0,0,0,0,0,0,0,0,0,0,0,0,0,0,0,0,0,0,0,0,0,0,0,0,0,0,0,0,0,0,0,0,0,0,0,0,0,0,0,0,0,0,0,0,0,0,0,0,0,0],"id":6,"left_children":[1,3,5,7,9,-1,11,-1,-1,-1,13,15,17,-1,19,21,23,25,27,-1,-1,29,31,33,35,37,39,41,43,45,47,49,51,53,55,57,59,61,63,-1,-1,-1,-1,65,-1,-1,-1,-1,-1,-1,-1,-1,-1,-1,-1,-1,-1,-1,-1,-1,-1,-1,-1,-1,-1,-1,-1],"loss_changes":[5.401007E5,3.3135594E4,1.2144339E5,9.265625E2,4.2756797E3,0E0,5.0842375E4,0E0,0E0,0E0,2.3921875E3,9.803582E3,2.5697531E4,0E0,7.9586914E1,1.2772324E3,6.593449E3,3.7583955E3,4.1338438E3,0E0,0E0,1.8000583E2,9.4869116E2,6.624741E2,1.2068984E3,3.4581906E2,1.2866211E2,1.11828125E2,3.8409531E3,1.9397656E2,9.532016E1,1.0375433E2,2.3424805E2,5.5858604E1,2.3087097E1,1.3829736E2,4.8734766E2,3.6941235E1,1.686325E1,0E0,0E0,0E0,0E0,1.7755469E2,0E0,0E0,0E0,0E0,0E0,0E0,0E0,0E0,0E0,0E0,0E0,0E0,0E0,0E0,0E0,0E0,0E0,0E0,0E0,0E0,0E0,0E0,0E0],"parents":[2147483647,0,0,1,1,2,2,3,3,4,4,6,6,10,10,11,11,12,12,14,14,15,15,16,16,17,17,18,18,21,21,22,22,23,23,24,24,25,25,26,26,27,27,28,28,29,29,30,30,31,31,32,32,33,33,34,34,35,35,36,36,37,37,38,38,43,43],"right_children":[2,4,6,8,10,-1,12,-1,-1,-1,14,16,18,-1,20,22,24,26,28,-1,-1,30,32,34,36,38,40,42,44,46,48,50,52,54,56,58,60,62,64,-1,-1,-1,-1,66,-1,-1,-1,-1,-1,-1,-1,-1,-1,-1,-1,-1,-1,-1,-1,-1,-1,-1,-1,-1,-1,-1,-1],"split_conditions":[5.7E1,2.3E1,6E1,8E0,1.3E1,-2.4961433E0,1.12E2,-2.5358624E0,-1.9038467E0,-2.3487968E0,4.3E1,9.1E1,1.08E2,-1.3133451E0,5.2E1,8.2E1,8.6E1,8.4E1,1.33E2,-8.2387364E-1,-5.481352E-1,1E0,7.6E1,7.3E1,9.6E1,7.1E1,9.1E1,1.45E2,1.29E2,1.1435437E0,1.2575923E0,8.6E1,4.640653E1,1.99E2,7.8E1,1.1E2,9.8E1,6.6E1,7.4E1,5.625988E-1,1.0735573E0,1.7556117E0,4.5735493E-1,3.5118847E0,2.6610913E0,-2.356482E-1,6.4192295E-2,2.2401504E-2,2.5528058E-1,5.405738E-2,-2.7908117E-1,5.3492266E-1,1.6419646E-1,-2.1703338E-2,-2.527839E-1,1.5225326E-1,3.9368552E-1,7.594287E-1,7.630902E-2,7.2285116E-1,1.1944435E0,-2.0412038E-1,8.152485E-3,6.4761735E-2,3.7236214E-1,4.326994E-1,1.7860407E0],"split_indices":[4,4,0,4,0,0,0,0,0,0,4,0,4,0,4,0,4,4,0,0,0,35,4,4,0,4,4,28,4,61,49,0,43,3,4,26,4,4,4,0,0,0,0,39,0,0,0,0,0,0,0,0,0,0,0,0,0,0,0,0,0,0,0,0,0,0,0],"split_type":[0,0,0,0,0,0,0,0,0,0,0,0,0,0,0,0,0,0,0,0,0,0,0,0,0,0,0,0,0,0,0,0,0,0,0,0,0,0,0,0,0,0,0,0,0,0,0,0,0,0,0,0,0,0,0,0,0,0,0,0,0,0,0,0,0,0,0],"sum_hessian":[7.09E2,2.3E2,4.79E2,1.41E2,8.9E1,2.3E1,4.56E2,1.17E2,2.4E1,7E0,8.2E1,2.47E2,2.09E2,4.5E1,3.7E1,9.1E1,1.56E2,5.6E1,1.53E2,2.2E1,1.5E1,3.7E1,5.4E1,2.5E1,1.31E2,1.4E1,4.2E1,7.6E1,7.7E1,2E1,1.7E1,8E0,4.6E1,1E1,1.5E1,3.3E1,9.8E1,8E0,6E0,5E0,3.7E1,7.5E1,1E0,2.8E1,4.9E1,9E0,1.1E1,9E0,8E0,5E0,3E0,4E1,6E0,5E0,5E0,3E0,1.2E1,3.2E1,1E0,1.2E1,8.6E1,5E0,3E0,1E0,5E0,1E0,2.7E1],"tree_param":{"num_deleted":"0","num_feature":"83","num_nodes":"67","size_leaf_vector":"1"}},{"base_weights":[6.220909E-1,-3.747349E1,1.7578007E1,-2.3628287E0,-2.3193369E1,-2.3911958E0,2.1329666E1,-2.239539E0,-2.0860361E1,1.1499801E1,3.07792E1,-1.3097767E0,-1.4626023E1,4.1043538E-1,1.4194996E1,1.3569581E1,3.820661E1,-8.1016964E-1,-5.213285E-1,-5.9895077E0,3.3975825E0,5.708847E0,1.7929384E1,6.37225E-1,1.913575E1,3.2029205E1,4.3121822E1,-3.3035102E-1,-6.585579E-2,-1.9618626E-1,3.7603254E0,6.470512E-1,8.158258E0,1.359898E1,2.0620962E1,-4.0718946E0,6.1446185E0,5.622303E-1,1.0279491E0,1.6107973E0,4.4592115E-1,3.2790184E1,2.4173388E0,7.74635E-2,2.6355642E-1,1.2198056E-1,-1.9710955E-1,4.4014263E-1,1.0072257E-1,5.2351188E-2,6.9122833E-1,8.205674E-1,1.1550554E0,-2.8233224E-1,-2.11483E-2,8.96904E-2,3.7759733E-1,4.2188188E-1,1.6643763E0],"categories":[],"categories_nodes":[],"categories_segments":[],"categories_sizes":[],"default_left":[0,0,0,0,0,0,0,0,0,0,0,0,0,0,0,0,0,0,0,0,0,0,0,0,0,0,0,0,0,0,0,0,0,0,0,0,0,0,0,0,0,0,0,0,0,0,0,0,0,0,0,0,0,0,0,0,0,0,0],"id":7,"left_children":[1,3,5,-1,7,-1,9,-1,11,13,15,-1,17,19,21,23,25,-1,-1,27,29,31,33,35,37,39,41,-1,-1,-1,43,45,47,49,51,53,55,-1,-1,-1,-1,57,-1,-1,-1,-1,-1,-1,-1,-1,-1,-1,-1,-1,-1,-1,-1,-1,-1],"loss_changes":[4.5927994E5,2.9499062E4,1.2174003E5,0E0,3.6508555E3,0E0,4.2931703E4,0E0,2.4108125E3,6.868412E3,2.9775594E4,0E0,1.0264258E2,8.997582E2,5.7604023E3,5.242616E3,3.6287656E3,0E0,0E0,3.457672E1,9.973859E1,7.1382983E2,1.2114961E3,6.215247E2,3.415996E2,4.4992188E1,3.219125E3,0E0,0E0,0E0,9.538812E1,1.7414725E2,1.3671704E2,1.3276562E2,4.2479492E2,7.2311584E1,5.3806458E1,0E0,0E0,0E0,0E0,1.188125E2,0E0,0E0,0E0,0E0,0E0,0E0,0E0,0E0,0E0,0E0,0E0,0E0,0E0,0E0,0E0,0E0,0E0],"parents":[2147483647,0,0,1,1,2,2,4,4,6,6,8,8,9,9,10,10,12,12,13,13,14,14,15,15,16,16,19,19,20,20,21,21,22,22,23,23,24,24,25,25,26,26,30,30,31,31,32,32,33,33,34,34,35,35,36,36,41,41],"right_children":[2,4,6,-1,8,-1,10,-1,12,14,16,-1,18,20,22,24,26,-1,-1,28,30,32,34,36,38,40,42,-1,-1,-1,44,46,48,50,52,54,56,-1,-1,-1,-1,58,-1,-1,-1,-1,-1,-1,-1,-1,-1,-1,-1,-1,-1,-1,-1,-1,-1],"split_conditions":[5.7E1,2.2E1,6E1,-2.3628287E0,1.3E1,-2.3911958E0,1.09E2,-2.239539E0,4.1E1,8.3E1,1.08E2,-1.3097767E0,5.1E1,6.9E1,8.9E1,8.5E1,1.29E2,-8.1016964E-1,-5.213285E-1,6.4E1,1.6947884E1,8.1E1,9.6E1,7.1E1,9.1E1,1.45E2,1.28E2,-3.3035102E-1,-6.585579E-2,-1.9618626E-1,7.5E1,3.9782444E1,7.766428E1,2.0828445E1,4.574236E1,6.6E1,7.5E1,5.622303E-1,1.0279491E0,1.6107973E0,4.4592115E-1,3.5118847E0,2.4173388E0,7.74635E-2,2.6355642E-1,1.2198056E-1,-1.9710955E-1,4.4014263E-1,1.0072257E-1,5.2351188E-2,6.9122833E-1,8.205674E-1,1.1550554E0,-2.8233224E-1,-2.11483E-2,8.96904E-2,3.7759733E-1,4.2188188E-1,1.6643763E0],"split_indices":[4,4,0,0,0,0,0,0,4,4,4,0,4,4,0,4,0,0,0,4,67,0,0,4,4,28,4,0,0,0,4,67,54,43,51,4,4,0,0,0,0,39,0,0,0,0,0,0,0,0,0,0,0,0,0,0,0,0,0],"split_type":[0,0,0,0,0,0,0,0,0,0,0,0,0,0,0,0,0,0,0,0,0,0,0,0,0,0,0,0,0,0,0,0,0,0,0,0,0,0,0,0,0,0,0,0,0,0,0,0,0,0,0,0,0,0,0,0,0,0,0],"sum_hessian":[7.09E2,2.18E2,4.91E2,1.28E2,9E1,2.6E1,4.65E2,7E0,8.3E1,2.29E2,2.36E2,4.3E1,4E1,4.5E1,1.84E2,7.2E1,1.64E2,2.7E1,1.3E1,1.4E1,3.1E1,5.7E1,1.27E2,2.2E1,5E1,7.6E1,8.8E1,1.2E1,2E0,1E0,3E1,1.9E1,3.8E1,5.1E1,7.6E1,1.2E1,1E1,9E0,4.1E1,7.5E1,1E0,3.2E1,5.6E1,1.3E1,1.7E1,1.4E1,5E0,3.4E1,4E0,1E0,5E1,3.1E1,4.5E1,8E0,4E0,3E0,7E0,1E0,3.1E1],"tree_param":{"num_deleted":"0","num_feature":"83","num_nodes":"59","size_leaf_vector":"1"}},{"base_weights":[4.1860178E-1,-3.4824024E1,1.7562794E1,-4.4221268E1,-2.0357695E1,-2.271455E0,2.0970308E1,-2.3007367E0,-1.7029504E0,-2.1321719E0,-1.8074434E1,1.1775711E1,3.0073334E1,-2.2580442E1,-1.22153635E1,5.0062637E0,1.57368E1,1.3476678E1,3.6154266E1,-1.2819818E0,-9.502878E-1,-6.8738765E-1,-4.7893402E-1,2.3538475E0,8.294741E0,3.3464425E0,1.8064335E1,2.6748736E0,1.8813892E1,3.1017326E1,4.3000683E1,3.0914283E0,-4.7551484E0,-1.6854057E0,9.198337E0,-1.2896339E0,5.745083E0,1.306537E1,2.011072E1,-2.4430943E0,4.0074706E-1,7.2209686E-1,1.0604572E0,2.5246494E1,3.2937565E1,3.3644737E1,2.50915E0,3.5148885E-2,2.1311104E-1,-2.6273805E-1,-6.891747E-2,-1.12147145E-1,-3.1986236E-4,5.356126E-1,2.4607038E-1,-1.4803751E-3,-1.8999086E-1,1.4459896E-1,3.3895203E-1,7.1873957E-1,2.6064798E-1,8.203452E-1,1.1797522E0,-2.0593701E-1,3.6327895E-2,3.3564168E-1,1.2834333E0,6.2248445E-1,1.6675494E0,1.7090982E0,4.113348E-1],"categories":[],"categories_nodes":[],"categories_segments":[],"categories_sizes":[],"default_left":[0,0,0,0,0,0,0,0,0,0,0,0,0,0,0,0,0,0,0,0,0,0,0,0,0,0,0,0,0,0,0,0,0,0,0,0,0,0,0,0,0,0,0,0,0,0,0,0,0,0,0,0,0,0,0,0,0,0,0,0,0,0,0,0,0,0,0,0,0,0,0],"id":8,"left_children":[1,3,5,7,9,-1,11,-1,-1,-1,13,15,17,19,21,23,25,27,29,-1,-1,-1,-1,31,33,35,37,39,41,43,45,47,49,51,53,55,57,59,61,63,-1,-1,-1,65,67,69,-1,-1,-1,-1,-1,-1,-1,-1,-1,-1,-1,-1,-1,-1,-1,-1,-1,-1,-1,-1,-1,-1,-1,-1,-1],"loss_changes":[4.3201494E5,3.0910594E4,1.0419733E5,1.00259375E3,4.0123516E3,0E0,3.7896156E4,0E0,0E0,0E0,2.0210586E3,6.061711E3,2.262414E4,3.761133E1,2.993164E1,7.306023E2,4.0923633E3,3.5817227E3,4.5395625E3,0E0,0E0,0E0,0E0,2.7162964E2,3.5818774E2,2.7429575E2,9.750547E2,6.208477E2,1.3352051E2,2.655E2,2.9482266E3,1.2284091E2,1.1925583E0,3.7300901E0,1.7390234E2,2.8353577E1,2.759497E1,3.1578516E2,6.969219E2,6.672707E1,0E0,0E0,0E0,5.4597656E1,1.8617188E2,1.6942188E2,0E0,0E0,0E0,0E0,0E0,0E0,0E0,0E0,0E0,0E0,0E0,0E0,0E0,0E0,0E0,0E0,0E0,0E0,0E0,0E0,0E0,0E0,0E0,0E0,0E0],"parents":[2147483647,0,0,1,1,2,2,3,3,4,4,6,6,10,10,11,11,12,12,13,13,14,14,15,15,16,16,17,17,18,18,23,23,24,24,25,25,26,26,27,27,28,28,29,29,30,30,31,31,32,32,33,33,34,34,35,35,36,36,37,37,38,38,39,39,43,43,44,44,45,45],"right_children":[2,4,6,8,10,-1,12,-1,-1,-1,14,16,18,20,22,24,26,28,30,-1,-1,-1,-1,32,34,36,38,40,42,44,46,48,50,52,54,56,58,60,62,64,-1,-1,-1,66,68,70,-1,-1,-1,-1,-1,-1,-1,-1,-1,-1,-1,-1,-1,-1,-1,-1,-1,-1,-1,-1,-1,-1,-1,-1,-1],"split_conditions":[5.8E1,2.4E1,6E1,7E0,1.3E1,-2.271455E0,1.09E2,-2.3007367E0,-1.7029504E0,-2.1321719E0,4.4E1,9E1,1.08E2,3.6E1,5.3E1,8.4E1,8.8E1,8.7E1,1.33E2,-1.2819818E0,-9.502878E-1,-6.8738765E-1,-4.7893402E-1,5.451911E1,7.1E1,7.3E1,9.6E1,7.3E1,9.8E1,1.14E2,1.36E2,1.2575923E0,6E-1,6.9E1,4.0297314E1,1.67E2,7.8E1,4.8757904E1,4.5873123E1,6.7E1,4.0074706E-1,7.2209686E-1,1.0604572E0,1.4E1,3.3333334E-1,7.857143E1,2.50915E0,3.5148885E-2,2.1311104E-1,-2.6273805E-1,-6.891747E-2,-1.12147145E-1,-3.1986236E-4,5.356126E-1,2.4607038E-1,-1.4803751E-3,-1.8999086E-1,1.4459896E-1,3.3895203E-1,7.1873957E-1,2.6064798E-1,8.203452E-1,1.1797522E0,-2.0593701E-1,3.6327895E-2,3.3564168E-1,1.2834333E0,6.2248445E-1,1.6675494E0,1.7090982E0,4.113348E-1],"split_indices":[4,4,0,4,0,0,0,0,0,0,4,0,4,4,4,0,4,4,0,0,0,0,0,63,4,4,0,4,4,0,4,49,24,4,67,3,4,39,51,4,0,0,0,11,56,66,0,0,0,0,0,0,0,0,0,0,0,0,0,0,0,0,0,0,0,0,0,0,0,0,0],"split_type":[0,0,0,0,0,0,0,0,0,0,0,0,0,0,0,0,0,0,0,0,0,0,0,0,0,0,0,0,0,0,0,0,0,0,0,0,0,0,0,0,0,0,0,0,0,0,0,0,0,0,0,0,0,0,0,0,0,0,0,0,0,0,0,0,0,0,0,0,0,0,0],"sum_hessian":[7.13E2,2.33E2,4.8E2,1.4E2,9.3E1,2.4E1,4.56E2,1.16E2,2.4E1,7E0,8.6E1,2.28E2,2.28E2,4.7E1,3.9E1,8.5E1,1.43E2,6.2E1,1.66E2,2.2E1,2.5E1,2.2E1,1.7E1,4.8E1,3.7E1,2.3E1,1.2E2,2.1E1,4.1E1,9.8E1,6.8E1,4.4E1,4E0,3E0,3.4E1,8E0,1.5E1,3.7E1,8.3E1,1.1E1,1E1,1.7E1,2.4E1,2.8E1,7E1,3.2E1,3.6E1,1.5E1,2.9E1,3E0,1E0,2E0,1E0,2.4E1,1E1,6E0,2E0,5E0,1E1,3.1E1,6E0,4.3E1,4E1,7E0,4E0,1E0,2.7E1,2E0,6.8E1,3.1E1,1E0],"tree_param":{"num_deleted":"0","num_feature":"83","num_nodes":"71","size_leaf_vector":"1"}},{"base_weights":[3.9135438E-1,1.0907307E1,-3.611932E1,-4.3495857E1,1.5357455E1,-2.4994991E1,-4.0564396E1,-2.2054212E0,-4.5951626E-1,4.8606653E0,2.5876347E1,-3.3559517E1,-1.7983227E0,-3.233164E1,-2.1943333E0,1.0263702E1,-1.3854301E1,3.2620327E1,1.3978466E1,-2.0025291E0,-1.1117362E0,-1.1200941E1,6.3026625E-1,-1.6488236E0,-2.4406223E-1,7.82402E-1,1.3765126E1,-8.001613E0,-1.9839268E1,2.8006592E1,4.239496E1,2.0826221E1,6.0119867E-2,-6.114581E-1,-7.437935E-2,2.3000467E0,-8.421267E0,1.0507736E1,1.7662676E1,-1.2048025E1,4.5077723E-1,-1.0636154E0,-4.4964096E-1,2.3486132E1,3.0548826E1,2.1466386E0,4.0105152E-1,8.435339E0,2.3576324E1,1.27260065E1,-4.6920924E0,-9.9099174E-2,1.8912226E-1,-4.927585E-1,4.040146E-2,5.5785686E-1,2.0003489E-1,5.720088E-1,9.99207E-1,-6.616177E-1,-2.6563644E-2,-1.14796005E-1,1.5611725E-1,2.9133415E-1,1.187753E0,1.5383424E0,3.9308435E-1,5.423026E-1,1.4986038E-2,1.9764443E-1,1.1944869E0,2.746549E-1,7.003912E-1,-8.622914E-2,-4.7231612E-1],"categories":[],"categories_nodes":[],"categories_segments":[],"categories_sizes":[],"default_left":[0,0,0,0,0,0,0,0,0,0,0,0,0,0,0,0,0,0,0,0,0,0,0,0,0,0,0,0,0,0,0,0,0,0,0,0,0,0,0,0,0,0,0,0,0,0,0,0,0,0,0,0,0,0,0,0,0,0,0,0,0,0,0,0,0,0,0,0,0,0,0,0,0,0,0],"id":9,"left_children":[1,3,5,7,9,11,13,-1,-1,15,17,19,21,23,-1,25,27,29,31,-1,-1,33,-1,-1,-1,35,37,39,41,43,45,47,49,-1,-1,51,53,55,57,59,61,-1,-1,63,65,-1,-1,67,69,71,73,-1,-1,-1,-1,-1,-1,-1,-1,-1,-1,-1,-1,-1,-1,-1,-1,-1,-1,-1,-1,-1,-1,-1,-1],"loss_changes":[2.7299456E5,1.3430836E5,6.8484062E3,4.7723438E2,5.6296094E4,9.475736E3,1.6444375E3,0E0,0E0,2.6129434E4,2.0004969E4,1.6823359E3,2.0372396E3,4.7626953E2,0E0,6.62884E3,1.8728867E3,6.1184688E3,8.957836E3,0E0,0E0,7.169519E1,0E0,0E0,0E0,7.876038E2,1.667998E3,1.0656885E3,2.4391699E2,5.81125E2,5.7997656E2,1.9479258E3,1.9858231E3,0E0,0E0,3.1218518E2,1.13834656E2,3.0186816E2,7.1032227E2,2.7940186E2,8.788652E1,0E0,0E0,7.529492E1,9.941016E1,0E0,0E0,2.5171356E2,2.1922461E2,6.494995E0,3.2230634E2,0E0,0E0,0E0,0E0,0E0,0E0,0E0,0E0,0E0,0E0,0E0,0E0,0E0,0E0,0E0,0E0,0E0,0E0,0E0,0E0,0E0,0E0,0E0,0E0],"parents":[2147483647,0,0,1,1,2,2,3,3,4,4,5,5,6,6,9,9,10,10,11,11,12,12,13,13,15,15,16,16,17,17,18,18,21,21,25,25,26,26,27,27,28,28,29,29,30,30,31,31,32,32,35,35,36,36,37,37,38,38,39,39,40,40,43,43,44,44,47,47,48,48,49,49,50,50],"right_children":[2,4,6,8,10,12,14,-1,-1,16,18,20,22,24,-1,26,28,30,32,-1,-1,34,-1,-1,-1,36,38,40,42,44,46,48,50,-1,-1,52,54,56,58,60,62,-1,-1,64,66,-1,-1,68,70,72,74,-1,-1,-1,-1,-1,-1,-1,-1,-1,-1,-1,-1,-1,-1,-1,-1,-1,-1,-1,-1,-1,-1,-1,-1],"split_conditions":[7E1,6.5E1,8.8E1,6E1,1.06E2,1.14E2,1E0,-2.2054212E0,-4.5951626E-1,2.4E1,1.9E1,9.1E1,1E-1,6.1076923E1,-2.1943333E0,8.4E1,4.5E1,1.33E2,1.91E2,-2.0025291E0,-1.1117362E0,1.17E2,6.3026625E-1,-1.6488236E0,-2.4406223E-1,1.2E1,9.6E1,9.5E1,8.128571E1,1.14E2,4.9E0,1.19E2,3.5E1,-6.114581E-1,-7.437935E-2,7.6E1,7.9E1,1.01E2,5.9221428E1,2.8307831E0,1.910665E0,-1.0636154E0,-4.4964096E-1,3E0,1.48E2,2.1466386E0,4.0105152E-1,8.67E1,7.071068E-2,1.1E1,6E1,-9.9099174E-2,1.8912226E-1,-4.927585E-1,4.040146E-2,5.5785686E-1,2.0003489E-1,5.720088E-1,9.99207E-1,-6.616177E-1,-2.6563644E-2,-1.14796005E-1,1.5611725E-1,2.9133415E-1,1.187753E0,1.5383424E0,3.9308435E-1,5.423026E-1,1.4986038E-2,1.9764443E-1,1.1944869E0,2.746549E-1,7.003912E-1,-8.622914E-2,-4.7231612E-1],"split_indices":[6,0,6,0,0,0,26,0,0,6,6,0,22,66,0,0,6,0,3,0,0,15,0,0,0,6,0,0,40,0,25,0,6,0,0,0,0,16,54,45,49,0,0,11,28,0,0,32,45,9,6,0,0,0,0,0,0,0,0,0,0,0,0,0,0,0,0,0,0,0,0,0,0,0,0],"split_type":[0,0,0,0,0,0,0,0,0,0,0,0,0,0,0,0,0,0,0,0,0,0,0,0,0,0,0,0,0,0,0,0,0,0,0,0,0,0,0,0,0,0,0,0,0,0,0,0,0,0,0,0,0,0,0,0,0,0,0,0,0,0,0,0,0,0,0,0,0,0,0,0,0,0,0],"sum_hessian":[7.09E2,5.51E2,1.58E2,4.1E1,5.1E2,4.7E1,1.11E2,4E1,1E0,2.56E2,2.54E2,3.4E1,1.3E1,3.5E1,7.6E1,1.99E2,5.7E1,1.61E2,9.3E1,2E1,1.4E1,8E0,5E0,3.4E1,1E0,5.4E1,1.45E2,3E1,2.7E1,1.12E2,4.9E1,6.2E1,3.1E1,7E0,1E0,4.7E1,7E0,8.1E1,6.4E1,2E1,1E1,2.3E1,4E0,4.4E1,6.8E1,4.8E1,1E0,1.2E1,5E1,8E0,2.3E1,1.2E1,3.5E1,6E0,1E0,7.3E1,8E0,1.9E1,4.5E1,1.8E1,2E0,5E0,5E0,1E0,4.3E1,6.7E1,1E0,9E0,3E0,1E0,4.9E1,2E0,6E0,1.5E1,8E0],"tree_param":{"num_deleted":"0","num_feature":"83","num_nodes":"75","size_leaf_vector":"1"}},{"base_weights":[5.0957114E-1,-3.0944347E1,1.578798E1,-4.0277287E1,-1.905439E1,-2.058153E0,1.9183336E1,-2.0757864E0,-1.5330814E0,-2.0091224E0,-1.6704033E1,1.037259E1,2.7836798E1,-2.1132496E1,-1.0788819E1,6.217306E-1,1.2219564E1,1.3441546E1,3.389915E1,-1.2023724E0,-8.609468E-1,-5.99124E-1,-3.9755034E-1,-3.292187E0,3.0420237E0,5.020327E0,1.5305849E1,3.3568907E0,1.7609964E1,2.8264227E1,3.833011E1,-2.4132185E-1,-8.492671E-1,-1.9688836E-1,3.5167E0,1.3683065E0,6.8121295E0,1.1553375E1,1.7788164E1,-9.844742E-1,3.8938767E-1,6.317513E-1,9.596845E-1,2.8557482E1,5.804609E-1,2.897419E1,2.1537118E0,-6.600927E-2,-1.984314E-2,2.2329669E-1,7.719498E-2,2.2884357E-1,3.978777E-3,-7.970682E-3,3.5916242E-1,6.252187E-1,3.4725502E-1,1.0219803E0,6.799878E-1,-1.6855933E-1,6.0095925E-2,1.4361218E0,4.128914E-1,3.9102516E-1,1.4695425E0],"categories":[],"categories_nodes":[],"categories_segments":[],"categories_sizes":[],"default_left":[0,0,0,0,0,0,0,0,0,0,0,0,0,0,0,0,0,0,0,0,0,0,0,0,0,0,0,0,0,0,0,0,0,0,0,0,0,0,0,0,0,0,0,0,0,0,0,0,0,0,0,0,0,0,0,0,0,0,0,0,0,0,0,0,0],"id":10,"left_children":[1,3,5,7,9,-1,11,-1,-1,-1,13,15,17,19,21,23,25,27,29,-1,-1,-1,-1,31,33,35,37,39,41,43,45,-1,47,-1,49,51,53,55,57,59,-1,-1,-1,61,-1,63,-1,-1,-1,-1,-1,-1,-1,-1,-1,-1,-1,-1,-1,-1,-1,-1,-1,-1,-1],"loss_changes":[3.5130156E5,2.5753969E4,9.592725E4,3.10875E2,4.642246E3,0E0,3.516447E4,0E0,0E0,0E0,2.3391445E3,4.170629E3,1.9965328E4,2.1335938E2,5.377246E1,3.6998233E2,4.2558438E3,2.9255166E3,3.0113906E3,0E0,0E0,0E0,0E0,5.212181E1,9.336336E1,3.833009E2,1.0613027E3,4.308586E2,1.514336E2,3.966797E1,2.7022812E3,0E0,9.673853E-1,0E0,3.6175964E1,8.647031E1,1.0463599E2,1.6295557E2,6.104512E2,6.667138E1,0E0,0E0,0E0,1.0605469E1,0E0,6.1007812E1,0E0,0E0,0E0,0E0,0E0,0E0,0E0,0E0,0E0,0E0,0E0,0E0,0E0,0E0,0E0,0E0,0E0,0E0,0E0],"parents":[2147483647,0,0,1,1,2,2,3,3,4,4,6,6,10,10,11,11,12,12,13,13,14,14,15,15,16,16,17,17,18,18,23,23,24,24,25,25,26,26,27,27,28,28,29,29,30,30,32,32,34,34,35,35,36,36,37,37,38,38,39,39,43,43,45,45],"right_children":[2,4,6,8,10,-1,12,-1,-1,-1,14,16,18,20,22,24,26,28,30,-1,-1,-1,-1,32,34,36,38,40,42,44,46,-1,48,-1,50,52,54,56,58,60,-1,-1,-1,62,-1,64,-1,-1,-1,-1,-1,-1,-1,-1,-1,-1,-1,-1,-1,-1,-1,-1,-1,-1,-1],"split_conditions":[5.9E1,2.3E1,6E1,9E0,1.3E1,-2.058153E0,1.09E2,-2.0757864E0,-1.5330814E0,-2.0091224E0,4.4E1,8.3E1,1.09E2,3.6E1,5.4E1,7.1E1,8.9E1,8.8E1,1.28E2,-1.2023724E0,-8.609468E-1,-5.99124E-1,-3.9755034E-1,6.4E1,5.1428574E-1,8.1E1,9.6E1,7.5E1,9.7E1,5.1E0,1.29E2,-2.4132185E-1,2.5E1,-1.9688836E-1,1E0,5.02E1,2E0,4.3285713E1,6.653333E1,6.6E1,3.8938767E-1,6.317513E-1,9.596845E-1,1.55E2,5.804609E-1,3.5118847E0,2.1537118E0,-6.600927E-2,-1.984314E-2,2.2329669E-1,7.719498E-2,2.2884357E-1,3.978777E-3,-7.970682E-3,3.5916242E-1,6.252187E-1,3.4725502E-1,1.0219803E0,6.799878E-1,-1.6855933E-1,6.0095925E-2,1.4361218E0,4.128914E-1,3.9102516E-1,1.4695425E0],"split_indices":[4,4,0,4,0,0,0,0,0,0,4,4,4,4,4,4,0,4,0,0,0,0,0,4,46,0,0,4,4,25,4,0,2,0,34,50,9,64,50,4,0,0,0,18,0,39,0,0,0,0,0,0,0,0,0,0,0,0,0,0,0,0,0,0,0],"split_type":[0,0,0,0,0,0,0,0,0,0,0,0,0,0,0,0,0,0,0,0,0,0,0,0,0,0,0,0,0,0,0,0,0,0,0,0,0,0,0,0,0,0,0,0,0,0,0,0,0,0,0,0,0,0,0,0,0,0,0,0,0,0,0,0,0],"sum_hessian":[7.29E2,2.38E2,4.91E2,1.32E2,1.06E2,2.7E1,4.64E2,1.14E2,1.8E1,9E0,9.7E1,2.31E2,2.33E2,5.4E1,4.3E1,3.7E1,1.94E2,7E1,1.63E2,2.8E1,2.6E1,2.8E1,1.5E1,1.4E1,2.3E1,5.9E1,1.35E2,2.1E1,4.9E1,7.5E1,8.8E1,8E0,6E0,1E0,2.2E1,2E1,3.9E1,5.6E1,7.9E1,1.1E1,1E1,1.4E1,3.5E1,7.3E1,2E0,3.2E1,5.6E1,2E0,4E0,1.4E1,8E0,5E0,1.5E1,2E0,3.7E1,4.5E1,1.1E1,4.6E1,3.3E1,5E0,6E0,7.2E1,1E0,1E0,3.1E1],"tree_param":{"num_deleted":"0","num_feature":"83","num_nodes":"65","size_leaf_vector":"1"}},{"base_weights":[-3.8801786E-1,-3.0872E1,1.4821752E1,-3.7118805E1,-1.5758162E1,-1.9505062E0,1.7997915E1,-1.9703687E0,-1.3844323E0,-1.9605774E1,-5.3483397E-1,9.649682E0,2.585584E1,-1.5905024E0,-8.825418E-1,3.8814047E-1,1.1922177E1,1.1115663E1,3.1059204E1,-4.941432E0,2.610602E0,6.9101176E0,1.6911907E1,-2.3581002E0,1.3857577E1,2.632458E1,3.5311348E1,-2.745913E-1,-6.380895E-2,-1.9196606E-1,2.9535766E0,3.4908676E-1,8.99243E0,1.759407E1,4.9977317E0,-4.2042685E0,6.981552E-1,3.9713725E-1,8.082785E-1,2.761758E1,9.8780936E-1,2.8626734E1,4.1623825E1,4.2043686E-2,1.9839422E-1,9.038207E-2,-1.920833E-1,4.6580157E-1,8.2379155E-2,1.5505232E-1,8.962965E-1,-2.3827745E-2,3.9270067E-1,-6.2233545E-2,-2.2450447E-1,5.252673E-2,5.652873E-3,1.0763719E0,1.4726448E0,1.4468911E0,3.8124964E-1,2.1207995E0,8.725547E-1],"categories":[],"categories_nodes":[],"categories_segments":[],"categories_sizes":[],"default_left":[0,0,0,0,0,0,0,0,0,0,0,0,0,0,0,0,0,0,0,0,0,0,0,0,0,0,0,0,0,0,0,0,0,0,0,0,0,0,0,0,0,0,0,0,0,0,0,0,0,0,0,0,0,0,0,0,0,0,0,0,0,0,0],"id":11,"left_children":[1,3,5,7,9,-1,11,-1,-1,13,-1,15,17,-1,-1,19,21,23,25,27,29,31,33,35,37,39,41,-1,-1,-1,43,45,47,49,51,53,55,-1,-1,57,-1,59,61,-1,-1,-1,-1,-1,-1,-1,-1,-1,-1,-1,-1,-1,-1,-1,-1,-1,-1,-1,-1],"loss_changes":[3.2037906E5,2.113014E4,7.9523336E4,2.4050625E3,1.1340312E3,0E0,2.8352E4,0E0,0E0,3.4515332E2,0E0,4.4783438E3,1.6835219E4,0E0,0E0,5.222252E2,4.1596445E3,2.2493115E3,2.3922812E3,1.9216705E1,7.99167E1,1.1854648E3,6.029004E2,6.5001205E1,5.541709E2,1.5080469E2,2.3529531E3,0E0,0E0,0E0,6.0951447E1,1.4141808E2,1.4152051E2,3.291836E2,9.755951E1,3.3272552E-1,9.1211104E-1,0E0,0E0,1.0365625E2,0E0,6.681641E1,4.4890625E1,0E0,0E0,0E0,0E0,0E0,0E0,0E0,0E0,0E0,0E0,0E0,0E0,0E0,0E0,0E0,0E0,0E0,0E0,0E0,0E0],"parents":[2147483647,0,0,1,1,2,2,3,3,4,4,6,6,9,9,11,11,12,12,15,15,16,16,17,17,18,18,19,19,20,20,21,21,22,22,23,23,24,24,25,25,26,26,30,30,31,31,32,32,33,33,34,34,35,35,36,36,39,39,41,41,42,42],"right_children":[2,4,6,8,10,-1,12,-1,-1,14,-1,16,18,-1,-1,20,22,24,26,28,30,32,34,36,38,40,42,-1,-1,-1,44,46,48,50,52,54,56,-1,-1,58,-1,60,62,-1,-1,-1,-1,-1,-1,-1,-1,-1,-1,-1,-1,-1,-1,-1,-1,-1,-1,-1,-1],"split_conditions":[5.7E1,3.1E1,6E1,1.6E1,4.5E1,-1.9505062E0,1.09E2,-1.9703687E0,-1.3844323E0,1.2E1,-5.3483397E-1,8.3E1,1.08E2,-1.5905024E0,-8.825418E-1,6.9E1,9.4E1,7.3E1,1.29E2,6.4E1,9.928572E0,8.2E1,1E0,6.7E1,9.1E1,1.2E1,1.36E2,-2.745913E-1,-6.380895E-2,-1.9196606E-1,7.4E1,2.9E1,5.337201E1,4.2142857E1,1.17E2,1.12E2,1.16E2,3.9713725E-1,8.082785E-1,1.25E2,9.8780936E-1,7.857143E1,6.389277E1,4.2043686E-2,1.9839422E-1,9.038207E-2,-1.920833E-1,4.6580157E-1,8.2379155E-2,1.5505232E-1,8.962965E-1,-2.3827745E-2,3.9270067E-1,-6.2233545E-2,-2.2450447E-1,5.252673E-2,5.652873E-3,1.0763719E0,1.4726448E0,1.4468911E0,3.8124964E-1,2.1207995E0,8.725547E-1],"split_indices":[4,4,0,4,4,0,0,0,0,0,0,4,4,0,0,4,0,4,0,4,66,0,79,4,4,12,4,0,0,0,4,66,41,42,14,0,0,0,0,4,0,66,43,0,0,0,0,0,0,0,0,0,0,0,0,0,0,0,0,0,0,0,0],"split_type":[0,0,0,0,0,0,0,0,0,0,0,0,0,0,0,0,0,0,0,0,0,0,0,0,0,0,0,0,0,0,0,0,0,0,0,0,0,0,0,0,0,0,0,0,0,0,0,0,0,0,0,0,0,0,0,0,0,0,0,0,0,0,0],"sum_hessian":[6.89E2,2.29E2,4.6E2,1.61E2,6.8E1,2.5E1,4.35E2,1.27E2,3.4E1,3.7E1,3.1E1,2.12E2,2.23E2,3E0,3.4E1,4.2E1,1.7E2,5.9E1,1.64E2,1.2E1,3E1,8.6E1,8.4E1,1E1,4.9E1,8.1E1,8.3E1,1E1,2E0,1E0,2.9E1,2.1E1,6.5E1,7.9E1,5E0,6E0,4E0,1.5E1,3.4E1,6.5E1,1.6E1,4.3E1,4E1,1E1,1.9E1,1.6E1,5E0,6.2E1,3E0,2E0,7.7E1,2E0,3E0,1E0,5E0,2E0,2E0,1.8E1,4.7E1,4.2E1,1E0,3.8E1,2E0],"tree_param":{"num_deleted":"0","num_feature":"83","num_nodes":"63","size_leaf_vector":"1"}},{"base_weights":[5.4620713E-1,-2.8187794E1,1.4823214E1,-3.5055573E1,-1.517098E1,-1.8587687E0,1.773004E1,-1.8839095E0,-1.361318E0,-1.7495526E0,-1.3222734E1,1.1808272E1,2.7856821E1,-8.129827E-1,-4.571824E-1,3.9853947E0,1.4691005E1,1.2391847E1,3.287365E1,-1.1780975E0,6.2193575E0,7.7411585E0,1.8982197E1,2.6378884E0,8.04124E-1,2.7719803E1,3.7669304E1,-3.8876371E0,8.8743794E-1,3.0498006E0,7.6404686E0,2.1506944E0,1.0113761E1,1.9473265E1,8.997856E0,-7.584667E-1,3.363357E-1,2.7962475E1,3.0471936E-1,3.1400393E1,2.243244E0,-2.1386914E-1,-7.112605E-2,-1.9046238E-3,7.5434536E-2,-8.003398E-3,2.2717957E-1,2.127626E-1,4.6152854E-1,-1.120018E-1,2.1132882E-1,4.0211377E-1,6.458179E-1,1.3978094E-1,9.8618776E-1,6.1137384E-1,-2.3033524E-2,-1.2830754E-1,4.196869E-2,1.4085157E0,3.717184E-1,1.5910372E0,4.066952E-1],"categories":[],"categories_nodes":[],"categories_segments":[],"categories_sizes":[],"default_left":[0,0,0,0,0,0,0,0,0,0,0,0,0,0,0,0,0,0,0,0,0,0,0,0,0,0,0,0,0,0,0,0,0,0,0,0,0,0,0,0,0,0,0,0,0,0,0,0,0,0,0,0,0,0,0,0,0,0,0,0,0,0,0],"id":12,"left_children":[1,3,5,7,9,-1,11,-1,-1,-1,13,15,17,-1,-1,19,21,23,25,27,29,31,33,35,-1,37,39,41,43,45,47,49,51,53,55,57,-1,59,-1,61,-1,-1,-1,-1,-1,-1,-1,-1,-1,-1,-1,-1,-1,-1,-1,-1,-1,-1,-1,-1,-1,-1,-1],"loss_changes":[2.9783856E5,2.101275E4,7.396729E4,2.1978438E3,2.819545E3,0E0,2.7256547E4,0E0,0E0,0E0,8.299668E2,6.526418E3,1.2704516E4,0E0,0E0,9.3013086E2,6.205383E3,1.505502E3,2.09475E3,1.4336629E2,2.2893848E2,1.0791558E3,4.6707422E2,1.8563432E2,0E0,1.7069922E2,1.4330625E3,4.4837646E0,8.682294E0,9.182985E1,1.6526953E2,2.464483E2,2.3284424E2,4.628789E2,2.5001245E2,2.5261084E1,0E0,6.3625E1,0E0,1.0303516E2,0E0,0E0,0E0,0E0,0E0,0E0,0E0,0E0,0E0,0E0,0E0,0E0,0E0,0E0,0E0,0E0,0E0,0E0,0E0,0E0,0E0,0E0,0E0],"parents":[2147483647,0,0,1,1,2,2,3,3,4,4,6,6,10,10,11,11,12,12,15,15,16,16,17,17,18,18,19,19,20,20,21,21,22,22,23,23,25,25,26,26,27,27,28,28,29,29,30,30,31,31,32,32,33,33,34,34,35,35,37,37,39,39],"right_children":[2,4,6,8,10,-1,12,-1,-1,-1,14,16,18,-1,-1,20,22,24,26,28,30,32,34,36,-1,38,40,42,44,46,48,50,52,54,56,58,-1,60,-1,62,-1,-1,-1,-1,-1,-1,-1,-1,-1,-1,-1,-1,-1,-1,-1,-1,-1,-1,-1,-1,-1,-1,-1],"split_conditions":[5.9E1,3.1E1,6E1,6E0,1.2E1,-1.8587687E0,1.19E2,-1.8839095E0,-1.361318E0,-1.7495526E0,4.7E1,9.5E1,1.11E2,-8.129827E-1,-4.571824E-1,7.4E1,9.6E1,8.8E1,1.37E2,6.9E1,1E-1,8.4E1,1.19E2,7.5E1,8.04124E-1,4E0,1.38E2,6.4E1,7.2E1,2.35E1,8.2E1,7.4E1,1.8E1,1.879463E1,4.6E0,6.6E1,3.363357E-1,7.857143E1,3.0471936E-1,1.74E2,2.243244E0,-2.1386914E-1,-7.112605E-2,-1.9046238E-3,7.5434536E-2,-8.003398E-3,2.2717957E-1,2.127626E-1,4.6152854E-1,-1.120018E-1,2.1132882E-1,4.0211377E-1,6.458179E-1,1.3978094E-1,9.8618776E-1,6.1137384E-1,-2.3033524E-2,-1.2830754E-1,4.196869E-2,1.4085157E0,3.717184E-1,1.5910372E0,4.066952E-1],"split_indices":[4,4,0,4,0,0,0,0,0,0,4,4,4,0,0,4,0,4,4,4,5,0,28,4,0,8,0,4,4,66,4,0,9,41,24,4,0,66,0,20,0,0,0,0,0,0,0,0,0,0,0,0,0,0,0,0,0,0,0,0,0,0,0],"split_type":[0,0,0,0,0,0,0,0,0,0,0,0,0,0,0,0,0,0,0,0,0,0,0,0,0,0,0,0,0,0,0,0,0,0,0,0,0,0,0,0,0,0,0,0,0,0,0,0,0,0,0,0,0,0,0,0,0,0,0,0,0,0,0],"sum_hessian":[7.24E2,2.4E2,4.84E2,1.56E2,8.4E1,2.5E1,4.59E2,1.14E2,4.2E1,6E0,7.8E1,2.91E2,1.68E2,4.3E1,3.5E1,7.9E1,2.12E2,4.2E1,1.26E2,2.4E1,5.5E1,8.2E1,1.3E2,1.2E1,3E1,6.4E1,6.2E1,1E1,1.4E1,1.8E1,3.7E1,2.5E1,5.7E1,1.23E2,7E0,7E0,5E0,6.3E1,1E0,3.6E1,2.6E1,8E0,2E0,6E0,8E0,6E0,1.2E1,1.3E1,2.4E1,8E0,1.7E1,3.5E1,2.2E1,2E0,1.21E2,5E0,2E0,3E0,4E0,6.2E1,1E0,3.5E1,1E0],"tree_param":{"num_deleted":"0","num_feature":"83","num_nodes":"63","size_leaf_vector":"1"}},{"base_weights":[6.2275606E-1,1.4443273E1,-2.3619566E1,-2.4352775E0,2.0537159E1,-1.3812699E1,-3.1272457E1,-1.755922E0,2.5682068E0,1.4364561E1,2.7939009E1,-1.7967991E0,-6.1919093E0,-3.2228046E1,4.9956188E-1,5.016619E0,-7.4643292E0,1.6232382E1,5.4391766E0,2.9916195E1,1.944791E1,-9.802855E0,1.6892492E1,-2.4967596E1,-1.7992104E0,8.6821604E-1,7.382032E0,-8.7769165E0,3.083954E-1,1.296974E1,2.065404E1,8.28525E0,9.848456E-1,2.559468E1,3.360559E1,2.1502722E1,9.331027E0,-1.2052981E1,-7.522025E-1,1.0873479E0,5.159156E-1,-1.3783557E0,-1.3008704E1,-2.2100136E0,2.3678665E0,4.024084E0,8.816113E0,-4.7129902E-1,-2.0743476E-1,5.004845E-2,-4.4233132E-2,1.37865925E1,5.137948E0,2.1548931E1,6.4949006E-1,4.2060127E0,1.0158222E1,2.2750924E0,-2.2522119E-1,4.3943253E-1,2.6030178E1,1.6962032E0,3.6242542E-1,2.1297245E-1,2.2043715E1,4.314232E-3,1.0857437E1,-3.79828E0,-1.4968366E1,5.2230086E0,-3.9430265E0,-2.5209236E-1,-7.1094555E-1,-2.3737335E-1,3.478877E-2,-1.869669E-1,1.4183748E-1,2.3144506E-1,-1.5644494E-1,4.8697567E-1,4.7922518E-2,7.341712E-1,4.0174833E-1,4.384699E-1,1.1644205E-1,1.2148278E0,9.064916E-1,2.5561345E-1,4.957479E-2,2.5791407E-1,5.5711883E-1,-5.9581758E-3,2.0011495E-1,3.6852857E-1,1.3115885E0,1.1527523E0,5.6116503E-1,1.6463165E-1,5.855936E-1,-5.622174E-1,1.2063869E-2,-8.639507E-1,-4.922397E-1,2.8808594E-3,3.1222817E-1,-3.1673178E-1,9.691544E-3],"categories":[],"categories_nodes":[],"categories_segments":[],"categories_sizes":[],"default_left":[0,0,0,0,0,0,0,0,0,0,0,0,0,0,0,0,0,0,0,0,0,0,0,0,0,0,0,0,0,0,0,0,0,0,0,0,0,0,0,0,0,0,0,0,0,0,0,0,0,0,0,0,0,0,0,0,0,0,0,0,0,0,0,0,0,0,0,0,0,0,0,0,0,0,0,0,0,0,0,0,0,0,0,0,0,0,0,0,0,0,0,0,0,0,0,0,0,0,0,0,0,0,0,0,0,0,0],"id":13,"left_children":[1,3,5,7,9,11,13,-1,15,17,19,-1,21,23,-1,25,27,29,31,33,35,37,39,41,-1,43,45,47,49,51,53,55,57,59,61,63,65,67,69,-1,-1,-1,71,73,75,77,79,-1,-1,-1,-1,81,83,85,-1,87,89,91,-1,-1,93,-1,-1,-1,95,-1,97,99,101,103,105,-1,-1,-1,-1,-1,-1,-1,-1,-1,-1,-1,-1,-1,-1,-1,-1,-1,-1,-1,-1,-1,-1,-1,-1,-1,-1,-1,-1,-1,-1,-1,-1,-1,-1,-1,-1],"loss_changes":[2.3621028E5,4.623235E4,1.8781062E4,1.9713754E4,1.4675922E4,1.8997535E4,5.9606406E3,0E0,2.6166436E3,2.945836E3,1.9196719E3,0E0,7.334255E3,2.9195625E3,0E0,8.2766895E2,2.1695667E2,1.8960664E3,4.101928E2,1.0371875E3,4.4379492E2,1.5183174E3,1.5857764E2,1.2268418E3,0E0,1.5295361E2,2.2456396E2,1.4966675E1,4.190642E0,4.9853613E2,1.4532227E2,1.1008032E2,1.0940317E2,2.0305469E2,2.6614062E2,1.3931836E2,9.784204E1,1.387083E3,3.2564798E2,0E0,0E0,0E0,3.436743E1,8.4409515E1,7.360598E1,9.235574E1,2.5912842E2,0E0,0E0,0E0,0E0,2.946787E2,8.1588776E1,6.6802734E1,0E0,1.8236618E1,6.4937744E0,5.010141E1,0E0,0E0,2.1066406E1,0E0,0E0,0E0,3.8779297E0,0E0,2.1887207E-1,5.1405286E2,3.5079785E2,3.1300583E1,1.1005905E2,0E0,0E0,0E0,0E0,0E0,0E0,0E0,0E0,0E0,0E0,0E0,0E0,0E0,0E0,0E0,0E0,0E0,0E0,0E0,0E0,0E0,0E0,0E0,0E0,0E0,0E0,0E0,0E0,0E0,0E0,0E0,0E0,0E0,0E0,0E0,0E0],"parents":[2147483647,0,0,1,1,2,2,3,3,4,4,5,5,6,6,8,8,9,9,10,10,12,12,13,13,15,15,16,16,17,17,18,18,19,19,20,20,21,21,22,22,23,23,25,25,26,26,27,27,28,28,29,29,30,30,31,31,32,32,33,33,34,34,35,35,36,36,37,37,38,38,42,42,43,43,44,44,45,45,46,46,51,51,52,52,53,53,55,55,56,56,57,57,60,60,64,64,66,66,67,67,68,68,69,69,70,70],"right_children":[2,4,6,8,10,12,14,-1,16,18,20,-1,22,24,-1,26,28,30,32,34,36,38,40,42,-1,44,46,48,50,52,54,56,58,60,62,64,66,68,70,-1,-1,-1,72,74,76,78,80,-1,-1,-1,-1,82,84,86,-1,88,90,92,-1,-1,94,-1,-1,-1,96,-1,98,100,102,104,106,-1,-1,-1,-1,-1,-1,-1,-1,-1,-1,-1,-1,-1,-1,-1,-1,-1,-1,-1,-1,-1,-1,-1,-1,-1,-1,-1,-1,-1,-1,-1,-1,-1,-1,-1,-1],"split_conditions":[1.3E0,9.2E1,7.3E1,6E1,1.19E2,6E1,1.73E2,-1.755922E0,5E-1,6E-1,7E-1,-1.7967991E0,1.3E2,1E0,4.9956188E-1,8.2E1,8.7E1,1.06E2,2.9E1,1.33E2,4.2E1,1.16E2,1.5654606E0,1.57E2,-1.7992104E0,7.6E1,2.81E1,9.44E1,8.3E1,4.192857E1,1.14E2,1.06E2,1.01E2,2.0766666E1,4.9E0,1.7320508E-1,1.24E2,3.5E1,8.78E1,1.0873479E0,5.159156E-1,-1.3783557E0,9.130717E0,3.962073E1,4.4239607E-1,2.55E1,8.0957146E1,-4.7129902E-1,-2.0743476E-1,5.004845E-2,-4.4233132E-2,4.9480156E1,7E0,8.9E1,6.4949006E-1,7.5E1,1E-1,1.575255E0,-2.2522119E-1,4.3943253E-1,3.958114E-1,1.6962032E0,3.6242542E-1,2.1297245E-1,5.432866E1,4.314232E-3,1.34E2,8.7E1,1.02E2,1.18E2,8.333333E-1,-2.5209236E-1,-7.1094555E-1,-2.3737335E-1,3.478877E-2,-1.869669E-1,1.4183748E-1,2.3144506E-1,-1.5644494E-1,4.8697567E-1,4.7922518E-2,7.341712E-1,4.0174833E-1,4.384699E-1,1.1644205E-1,1.2148278E0,9.064916E-1,2.5561345E-1,4.957479E-2,2.5791407E-1,5.5711883E-1,-5.9581758E-3,2.0011495E-1,3.6852857E-1,1.3115885E0,1.1527523E0,5.6116503E-1,1.6463165E-1,5.855936E-1,-5.622174E-1,1.2063869E-2,-8.639507E-1,-4.922397E-1,2.8808594E-3,3.1222817E-1,-3.1673178E-1,9.691544E-3],"split_indices":[5,0,6,0,0,0,0,0,5,5,5,0,0,26,0,0,17,0,6,0,6,0,47,18,0,0,30,50,0,66,26,0,15,50,25,45,0,6,30,0,0,0,51,53,47,30,54,0,0,0,0,41,9,15,0,15,23,47,0,0,47,0,0,0,51,0,0,0,0,0,44,0,0,0,0,0,0,0,0,0,0,0,0,0,0,0,0,0,0,0,0,0,0,0,0,0,0,0,0,0,0,0,0,0,0,0,0],"split_type":[0,0,0,0,0,0,0,0,0,0,0,0,0,0,0,0,0,0,0,0,0,0,0,0,0,0,0,0,0,0,0,0,0,0,0,0,0,0,0,0,0,0,0,0,0,0,0,0,0,0,0,0,0,0,0,0,0,0,0,0,0,0,0,0,0,0,0,0,0,0,0,0,0,0,0,0,0,0,0,0,0,0,0,0,0,0,0,0,0,0,0,0,0,0,0,0,0,0,0,0,0,0,0,0,0,0,0],"sum_hessian":[7.03E2,4.48E2,2.55E2,1.19E2,3.29E2,1.13E2,1.42E2,1.5E1,1.04E2,1.81E2,1.48E2,2.8E1,8.5E1,1.39E2,3E0,8.4E1,2E1,1.49E2,3.2E1,1.18E2,3E1,7.4E1,1.1E1,5E1,8.9E1,3.1E1,5.3E1,1.7E1,3E0,8.8E1,6.1E1,1.9E1,1.3E1,5.8E1,6E1,2.4E1,6E0,5.9E1,1.5E1,5E0,6E0,4E1,1E1,1E1,2.1E1,1.7E1,3.6E1,1.4E1,3E0,2E0,1E0,7.9E1,9E0,5.3E1,8E0,7E0,1.2E1,1.1E1,2E0,2E0,5.6E1,5.9E1,1E0,1E0,2.3E1,1E0,5E0,1.6E1,4.3E1,5E0,1E1,2E0,8E0,5E0,5E0,1E0,2E1,1.6E1,1E0,3.2E1,4E0,6.7E1,1.2E1,3E0,6E0,2.6E1,2.7E1,5E0,2E0,3E0,9E0,5E0,6E0,1E0,5.5E1,2E1,3E0,1E0,4E0,5E0,1.1E1,2.8E1,1.5E1,1E0,4E0,6E0,4E0],"tree_param":{"num_deleted":"0","num_feature":"83","num_nodes":"107","size_leaf_vector":"1"}},{"base_weights":[2.4632393E-1,-2.6800636E1,1.2534784E1,-1.6664736E0,-1.725096E1,-1.6931788E0,1.5362518E1,-1.6823066E0,-1.5265326E1,4.008742E0,1.9651045E1,-9.4705296E-1,-1.0632677E1,-1.7468792E0,7.2278757E0,7.8738933E0,2.4239235E1,-6.1100024E-1,-4.2568573E-1,-5.06086E0,7.7262086E-1,1.2858626E0,8.143251E0,3.3588982E0,1.0618392E1,2.0462908E1,2.9208172E1,-2.7094612E-1,-1.13694094E-1,-6.9552106E-1,9.127193E-2,3.5405579E0,-2.5788224E0,6.144203E0,1.0079178E1,5.651194E0,3.2965672E-1,1.3449872E1,8.514437E0,2.060467E1,2.6040649E-2,9.902658E-1,3.3341793E1,-5.6426477E-2,6.81984E-3,-2.2529984E-2,2.4730217E-1,-1.6643715E-1,-4.846471E-2,3.141844E-1,2.8068542E-2,5.183077E-1,1.522503E-2,6.88046E-2,3.8452265E-1,-1.3922654E-1,1.3940205E-1,7.52273E-1,3.82673E-1,2.785177E-1,5.2955925E-1,6.681656E-1,1.0628037E0,1.6834309E0,2.8611565E-1],"categories":[],"categories_nodes":[],"categories_segments":[],"categories_sizes":[],"default_left":[0,0,0,0,0,0,0,0,0,0,0,0,0,0,0,0,0,0,0,0,0,0,0,0,0,0,0,0,0,0,0,0,0,0,0,0,0,0,0,0,0,0,0,0,0,0,0,0,0,0,0,0,0,0,0,0,0,0,0,0,0,0,0,0,0],"id":14,"left_children":[1,3,5,-1,7,-1,9,-1,11,13,15,-1,17,19,21,23,25,-1,-1,27,29,31,33,35,37,39,41,-1,-1,43,-1,45,47,49,51,53,55,57,59,61,-1,-1,63,-1,-1,-1,-1,-1,-1,-1,-1,-1,-1,-1,-1,-1,-1,-1,-1,-1,-1,-1,-1,-1,-1],"loss_changes":[2.329918E5,1.30793125E4,6.3759703E4,0E0,2.4488652E3,0E0,2.207561E4,0E0,1.2119609E3,2.3471687E3,1.764096E4,0E0,2.7138184E1,3.879906E2,4.3010156E2,1.1291255E3,3.8494688E3,0E0,0E0,7.6361694E0,4.3003143E1,1.1369472E2,2.0897266E2,2.5506198E2,2.3100586E2,3.7939453E2,3.2264297E3,0E0,0E0,4.4766583E0,0E0,4.7104805E1,2.8085556E0,2.5285156E1,9.221655E1,1.724961E2,1.3791315E2,9.7569824E1,1.6111157E2,3.621875E2,0E0,0E0,4.2115625E2,0E0,0E0,0E0,0E0,0E0,0E0,0E0,0E0,0E0,0E0,0E0,0E0,0E0,0E0,0E0,0E0,0E0,0E0,0E0,0E0,0E0,0E0],"parents":[2147483647,0,0,1,1,2,2,4,4,6,6,8,8,9,9,10,10,12,12,13,13,14,14,15,15,16,16,19,19,20,20,21,21,22,22,23,23,24,24,25,25,26,26,29,29,31,31,32,32,33,33,34,34,35,35,36,36,37,37,38,38,39,39,42,42],"right_children":[2,4,6,-1,8,-1,10,-1,12,14,16,-1,18,20,22,24,26,-1,-1,28,30,32,34,36,38,40,42,-1,-1,44,-1,46,48,50,52,54,56,58,60,62,-1,-1,64,-1,-1,-1,-1,-1,-1,-1,-1,-1,-1,-1,-1,-1,-1,-1,-1,-1,-1,-1,-1,-1,-1],"split_conditions":[5.5E1,2E1,6E1,-1.6664736E0,1.3E1,-1.6931788E0,9.8E1,-1.6823066E0,4.1E1,7.7E1,1E2,-9.4705296E-1,4.9E1,6.5E1,8.2E1,8.8E1,1.28E2,-6.1100024E-1,-4.2568573E-1,6.3E1,7.1E1,5.9E1,9E1,2.2333334E1,1.17E2,5E0,1.23E2,-2.7094612E-1,-1.13694094E-1,7E1,9.127193E-2,4.557143E1,7.8E1,4.9E1,1.089E2,1.18E2,9E0,6.387143E1,9.285714E-1,1.05E2,2.6040649E-2,9.902658E-1,4E0,-5.6426477E-2,6.81984E-3,-2.2529984E-2,2.4730217E-1,-1.6643715E-1,-4.846471E-2,3.141844E-1,2.8068542E-2,5.183077E-1,1.522503E-2,6.88046E-2,3.8452265E-1,-1.3922654E-1,1.3940205E-1,7.52273E-1,3.82673E-1,2.785177E-1,5.2955925E-1,6.681656E-1,1.0628037E0,1.6834309E0,2.8611565E-1],"split_indices":[4,4,0,0,0,0,4,0,4,4,0,0,4,4,0,0,0,0,0,4,4,40,4,62,4,1,4,0,0,4,0,40,0,2,31,4,9,54,60,4,0,0,8,0,0,0,0,0,0,0,0,0,0,0,0,0,0,0,0,0,0,0,0,0,0],"split_type":[0,0,0,0,0,0,0,0,0,0,0,0,0,0,0,0,0,0,0,0,0,0,0,0,0,0,0,0,0,0,0,0,0,0,0,0,0,0,0,0,0,0,0,0,0,0,0,0,0,0,0,0,0,0,0,0,0,0,0,0,0,0,0,0,0],"sum_hessian":[6.99E2,2.18E2,4.81E2,1.28E2,9E1,2.7E1,4.54E2,8E0,8.2E1,1.25E2,3.29E2,4.4E1,3.8E1,4.5E1,8E1,9.3E1,2.36E2,1.9E1,1.9E1,1.9E1,2.6E1,1.1E1,6.9E1,3.6E1,5.7E1,1.37E2,9.9E1,1.6E1,3E0,1.1E1,1.5E1,7E0,4E0,3.6E1,3.3E1,2E1,1.6E1,2.2E1,3.5E1,1.36E2,1E0,3.2E1,6.7E1,7E0,4E0,2E0,5E0,2E0,2E0,3.5E1,1E0,3.2E1,1E0,7E0,1.3E1,7E0,9E0,1.6E1,6E0,1.6E1,1.9E1,1.3E1,1.23E2,6.6E1,1E0],"tree_param":{"num_deleted":"0","num_feature":"83","num_nodes":"65","size_leaf_vector":"1"}},{"base_weights":[-4.867484E-1,-2.6070734E1,1.1516617E1,-1.5853376E0,-1.6572052E1,-1.6140054E0,1.4366475E1,-1.5870986E0,-1.484791E1,3.0865207E0,1.8328688E1,-9.523941E-1,-1.1493719E1,-2.5210218E0,6.250746E0,1.0155883E1,2.3986296E1,-6.4628154E-1,-4.351619E-1,-5.4374785E0,3.7824216E-1,1.5844675E0,7.2625465E0,2.8820925E0,1.3243812E1,1.8228153E1,2.7866121E1,-3.0798537E-1,-1.5049438E-1,-9.8341805E-1,9.166762E-1,-1.2771597E0,4.2480364E0,4.9426403E0,8.759166E0,-3.3942404E0,4.413661E0,1.1138124E1,1.656088E1,6.597976E-1,9.859886E-1,2.314044E1,1.7206011E0,-1.7487591E-2,-5.8346715E-2,1.3854382E-2,6.201765E-2,7.921829E-2,-1.2475313E-1,3.4865823E-2,2.657695E-1,2.611259E-1,4.813906E-2,2.5431243E-1,4.723319E-1,-7.469581E-2,-3.3484587E-1,1.7575097E-1,6.41375E-1,6.055475E-1,1.4680444E-1,8.6807483E-1,9.83476E-2,5.7016534E-1,1.1835483E0],"categories":[],"categories_nodes":[],"categories_segments":[],"categories_sizes":[],"default_left":[0,0,0,0,0,0,0,0,0,0,0,0,0,0,0,0,0,0,0,0,0,0,0,0,0,0,0,0,0,0,0,0,0,0,0,0,0,0,0,0,0,0,0,0,0,0,0,0,0,0,0,0,0,0,0,0,0,0,0,0,0,0,0,0,0],"id":15,"left_children":[1,3,5,-1,7,-1,9,-1,11,13,15,-1,17,19,21,23,25,-1,-1,27,29,31,33,35,37,39,41,-1,-1,43,45,47,49,51,53,55,57,59,61,-1,-1,63,-1,-1,-1,-1,-1,-1,-1,-1,-1,-1,-1,-1,-1,-1,-1,-1,-1,-1,-1,-1,-1,-1,-1],"loss_changes":[2.192582E5,1.1680484E4,6.112358E4,0E0,1.8041914E3,0E0,2.036839E4,0E0,9.080703E2,2.1449817E3,1.5385023E4,0E0,7.53042E1,3.7410208E2,3.520359E2,3.1063633E3,3.937836E3,0E0,0E0,2.0032043E1,1.7764254E1,1.1975752E2,1.7544385E2,4.2832428E2,5.0004492E2,3.627871E2,2.8229531E3,0E0,0E0,4.0587807E-1,3.1756535E0,3.1833572E1,2.6612503E1,2.5046387E1,4.537793E1,4.6480774E1,2.1954706E2,4.6712646E2,3.8647852E2,0E0,0E0,1.7217578E2,0E0,0E0,0E0,0E0,0E0,0E0,0E0,0E0,0E0,0E0,0E0,0E0,0E0,0E0,0E0,0E0,0E0,0E0,0E0,0E0,0E0,0E0,0E0],"parents":[2147483647,0,0,1,1,2,2,4,4,6,6,8,8,9,9,10,10,12,12,13,13,14,14,15,15,16,16,19,19,20,20,21,21,22,22,23,23,24,24,25,25,26,26,29,29,30,30,31,31,32,32,33,33,34,34,35,35,36,36,37,37,38,38,41,41],"right_children":[2,4,6,-1,8,-1,10,-1,12,14,16,-1,18,20,22,24,26,-1,-1,28,30,32,34,36,38,40,42,-1,-1,44,46,48,50,52,54,56,58,60,62,-1,-1,64,-1,-1,-1,-1,-1,-1,-1,-1,-1,-1,-1,-1,-1,-1,-1,-1,-1,-1,-1,-1,-1,-1,-1],"split_conditions":[5.4E1,2E1,6E1,-1.5853376E0,1.3E1,-1.6140054E0,9.8E1,-1.5870986E0,3.7E1,7.4E1,1.08E2,-9.523941E-1,4.7E1,6.5E1,8.3E1,9E1,1.26E2,-6.4628154E-1,-4.351619E-1,5.9E1,7E1,2.2666666E1,8.7E1,8.1E1,4.936409E1,1.04E2,1.33E2,-3.0798537E-1,-1.5049438E-1,3.979646E1,7.2E1,1.6E1,1E0,1.14E2,1.57E2,4E-1,2.9E0,4.9365982E1,1.77E2,6.597976E-1,9.859886E-1,3.2532036E0,1.7206011E0,-1.7487591E-2,-5.8346715E-2,1.3854382E-2,6.201765E-2,7.921829E-2,-1.2475313E-1,3.4865823E-2,2.657695E-1,2.611259E-1,4.813906E-2,2.5431243E-1,4.723319E-1,-7.469581E-2,-3.3484587E-1,1.7575097E-1,6.41375E-1,6.055475E-1,1.4680444E-1,8.6807483E-1,9.83476E-2,5.7016534E-1,1.1835483E0],"split_indices":[4,4,0,0,0,0,4,0,4,4,0,0,4,4,0,0,4,0,0,4,4,64,4,0,51,4,0,0,0,43,4,11,15,15,3,23,24,39,20,0,0,51,0,0,0,0,0,0,0,0,0,0,0,0,0,0,0,0,0,0,0,0,0,0,0],"split_type":[0,0,0,0,0,0,0,0,0,0,0,0,0,0,0,0,0,0,0,0,0,0,0,0,0,0,0,0,0,0,0,0,0,0,0,0,0,0,0,0,0,0,0,0,0,0,0,0,0,0,0,0,0,0,0,0,0,0,0,0,0,0,0,0,0],"sum_hessian":[7.12E2,2.27E2,4.85E2,1.41E2,8.6E1,2.9E1,4.56E2,7E0,7.9E1,1.19E2,3.37E2,3.3E1,4.6E1,4.3E1,7.6E1,1.39E2,1.98E2,2.8E1,1.8E1,2.1E1,2.2E1,1.4E1,6.2E1,4.2E1,9.7E1,8.2E1,1.16E2,1.5E1,6E0,6E0,1.6E1,7E0,7E0,2.6E1,3.6E1,8E0,3.4E1,6.2E1,3.5E1,2.1E1,6.1E1,7E1,4.6E1,2E0,4E0,6E0,1E1,2E0,5E0,2E0,5E0,2.4E1,2E0,7E0,2.9E1,6E0,2E0,3.2E1,2E0,5.5E1,7E0,3.3E1,2E0,4E0,6.6E1],"tree_param":{"num_deleted":"0","num_feature":"83","num_nodes":"65","size_leaf_vector":"1"}},{"base_weights":[-2.2654192E-1,-2.313176E1,1.1624911E1,-2.894741E1,-1.288977E1,-1.5320368E0,1.412441E1,-1.5247723E0,-1.0843576E0,-1.5102342E0,-1.1020521E1,7.653484E0,2.1085058E1,-6.8062896E-1,-7.5701656E0,3.5401487E0,1.0430423E1,1.1502594E1,2.5624811E1,-4.2197213E-1,-2.9508874E-1,1.1833504E0,5.6323075E0,2.0437827E0,1.280714E1,3.8508725E0,1.3930063E1,2.0587662E1,2.9208292E1,-4.508696E0,1.8486402E0,-9.7137886E-1,6.576342E0,-1.6250622E0,4.4464774E0,1.3323503E1,3.6747153E0,-1.8735327E0,3.0983424E-1,5.14189E-1,1.5407292E1,2.1377594E1,1.13271055E1,2.320112E1,3.3837692E1,5.2412036E-3,-2.844141E-1,-7.687656E-2,1.23652816E-1,-1.2663078E-1,4.1635133E-2,-1.3343213E-1,3.546203E-1,-1.6713825E-3,-1.4922725E-1,1.30891E-1,2.6475212E-1,4.695692E-1,7.297667E-1,3.3762693E-1,-1.6089344E-2,-1.1388779E-1,3.6895752E-3,7.7976674E-1,2.2534676E-1,3.9840254E-1,1.0863343E0,2.2894314E-1,6.555316E-1,1.1759154E0,2.866291E-1,1.7098492E0,4.6868667E-1],"categories":[],"categories_nodes":[],"categories_segments":[],"categories_sizes":[],"default_left":[0,0,0,0,0,0,0,0,0,0,0,0,0,0,0,0,0,0,0,0,0,0,0,0,0,0,0,0,0,0,0,0,0,0,0,0,0,0,0,0,0,0,0,0,0,0,0,0,0,0,0,0,0,0,0,0,0,0,0,0,0,0,0,0,0,0,0,0,0,0,0,0,0],"id":16,"left_children":[1,3,5,7,9,-1,11,-1,-1,-1,13,15,17,-1,19,21,23,25,27,-1,-1,29,31,33,35,37,39,41,43,45,47,49,51,53,55,57,59,61,-1,-1,63,65,67,69,71,-1,-1,-1,-1,-1,-1,-1,-1,-1,-1,-1,-1,-1,-1,-1,-1,-1,-1,-1,-1,-1,-1,-1,-1,-1,-1,-1,-1],"loss_changes":[1.8947661E5,1.380307E4,4.902853E4,1.0357578E3,2.5153271E3,0E0,1.9431828E4,0E0,0E0,0E0,6.21376E2,2.5559785E3,8.797172E3,0E0,3.8530273E0,4.5189893E2,2.6647373E3,1.2279854E3,1.9437969E3,0E0,0E0,1.7874367E2,3.118595E2,2.8049435E2,4.4618164E2,2.5332053E2,1.2164746E2,2.1139648E2,1.4396953E3,2.780648E1,9.0491974E1,2.1825106E1,2.240802E2,2.8029633E1,1.5621521E1,3.580293E2,8.827657E1,4.8910007E0,0E0,0E0,1.4521484E0,8.902539E1,2.4217773E1,7.573047E1,5.7402344E1,0E0,0E0,0E0,0E0,0E0,0E0,0E0,0E0,0E0,0E0,0E0,0E0,0E0,0E0,0E0,0E0,0E0,0E0,0E0,0E0,0E0,0E0,0E0,0E0,0E0,0E0,0E0,0E0],"parents":[2147483647,0,0,1,1,2,2,3,3,4,4,6,6,10,10,11,11,12,12,14,14,15,15,16,16,17,17,18,18,21,21,22,22,23,23,24,24,25,25,26,26,27,27,28,28,29,29,30,30,31,31,32,32,33,33,34,34,35,35,36,36,37,37,40,40,41,41,42,42,43,43,44,44],"right_children":[2,4,6,8,10,-1,12,-1,-1,-1,14,16,18,-1,20,22,24,26,28,-1,-1,30,32,34,36,38,40,42,44,46,48,50,52,54,56,58,60,62,-1,-1,64,66,68,70,72,-1,-1,-1,-1,-1,-1,-1,-1,-1,-1,-1,-1,-1,-1,-1,-1,-1,-1,-1,-1,-1,-1,-1,-1,-1,-1,-1,-1],"split_conditions":[5.9E1,2.9E1,6E1,1.6E1,1.2E1,-1.5320368E0,1.09E2,-1.5247723E0,-1.0843576E0,-1.5102342E0,4.7E1,9.2E1,1.15E2,-6.8062896E-1,5.4E1,8.4E1,9E1,8.9E1,1.29E2,-4.2197213E-1,-2.9508874E-1,7.1E1,8.3E1,7.3E1,3E0,7.1E1,1E2,3.9E0,1.36E2,6.6E1,4E0,6.9E1,7.412864E-1,1.67E2,7.9E1,9.6E1,1.0509022E0,6.7E1,3.0983424E-1,5.14189E-1,1.7E2,1.76E2,1.85E2,2.2860863E0,2.684919E0,5.2412036E-3,-2.844141E-1,-7.687656E-2,1.23652816E-1,-1.2663078E-1,4.1635133E-2,-1.3343213E-1,3.546203E-1,-1.6713825E-3,-1.4922725E-1,1.30891E-1,2.6475212E-1,4.695692E-1,7.297667E-1,3.3762693E-1,-1.6089344E-2,-1.1388779E-1,3.6895752E-3,7.7976674E-1,2.2534676E-1,3.9840254E-1,1.0863343E0,2.2894314E-1,6.555316E-1,1.1759154E0,2.866291E-1,1.7098492E0,4.6868667E-1],"split_indices":[4,4,0,4,0,0,0,0,0,0,4,0,4,0,4,0,4,4,0,0,0,0,4,4,1,4,4,22,4,0,9,4,49,3,4,0,61,4,0,0,21,3,3,47,61,0,0,0,0,0,0,0,0,0,0,0,0,0,0,0,0,0,0,0,0,0,0,0,0,0,0,0,0],"split_type":[0,0,0,0,0,0,0,0,0,0,0,0,0,0,0,0,0,0,0,0,0,0,0,0,0,0,0,0,0,0,0,0,0,0,0,0,0,0,0,0,0,0,0,0,0,0,0,0,0,0,0,0,0,0,0,0,0,0,0,0,0,0,0,0,0,0,0,0,0,0,0,0,0],"sum_hessian":[6.96E2,2.37E2,4.59E2,1.5E2,8.7E1,2.5E1,4.34E2,1.21E2,2.9E1,7E0,8E1,2.26E2,2.08E2,4.4E1,3.6E1,9.2E1,1.34E2,6.8E1,1.4E2,2.1E1,1.5E1,4.4E1,4.8E1,3E1,1.04E2,1.7E1,5.1E1,6.1E1,7.9E1,4E0,4E1,6E0,4.2E1,1.2E1,1.8E1,9.8E1,6E0,5E0,1.2E1,1.7E1,3.4E1,5.5E1,6E0,3.7E1,4.2E1,1E0,3E0,6E0,3.4E1,3E0,3E0,2E0,4E1,6E0,6E0,7E0,1.1E1,2.6E1,7.2E1,3E0,3E0,4E0,1E0,3.3E1,1E0,2E0,5.3E1,2E0,4E0,3.6E1,1E0,4.1E1,1E0],"tree_param":{"num_deleted":"0","num_feature":"83","num_nodes":"73","size_leaf_vector":"1"}},{"base_weights":[-8.78184E-2,-2.3607784E1,1.0205353E1,-2.8039412E1,-1.3245358E1,-1.4631317E0,1.2848713E1,-1.4691168E0,-1.0866535E0,-8.1685394E-1,-4.8292875E-1,1.849491E0,1.62689E1,-4.2687163E0,4.304341E0,1.0484959E1,2.2616854E1,-2.5901505E-1,-1.363522E0,2.1156723E0,5.997244E0,3.4354675E0,1.2726327E1,1.5713203E1,2.6904222E1,-2.5979137E-2,-8.4944725E-2,4.218679E0,1.2584229E0,1.26426E0,3.676057E-1,-1.2295958E0,4.936762E0,9.742914E0,1.4599281E1,5.654072E-1,1.7517605E1,2.1529812E1,1.4902093E0,9.857588E-2,2.4500516E-1,-1.8170185E-1,7.931825E-2,1.7969857E-1,-1.12509385E-1,5.807252E-2,-2.4046753E-1,1.4385705E-1,3.4741467E-1,4.3528175E-1,7.504022E-1,7.5080603E-1,1.2542382E-1,8.857997E-1,2.1971302E-1,1.1221728E0,5.4141665E-1],"categories":[],"categories_nodes":[],"categories_segments":[],"categories_sizes":[],"default_left":[0,0,0,0,0,0,0,0,0,0,0,0,0,0,0,0,0,0,0,0,0,0,0,0,0,0,0,0,0,0,0,0,0,0,0,0,0,0,0,0,0,0,0,0,0,0,0,0,0,0,0,0,0,0,0,0,0],"id":17,"left_children":[1,3,5,7,9,-1,11,-1,-1,-1,-1,13,15,17,19,21,23,-1,25,27,29,31,33,35,37,-1,-1,39,41,43,-1,45,47,49,51,-1,53,55,-1,-1,-1,-1,-1,-1,-1,-1,-1,-1,-1,-1,-1,-1,-1,-1,-1,-1,-1],"loss_changes":[1.7019166E5,9.456008E3,5.139243E4,6.233047E2,5.7410254E2,0E0,1.723721E4,0E0,0E0,0E0,0E0,1.6704949E3,1.2613531E4,7.7683105E1,2.8002295E2,2.879373E3,4.4905938E3,0E0,1.6645889E0,5.9591995E1,2.728584E2,3.2823737E2,6.4005273E2,3.2651074E2,9.3246875E2,0E0,0E0,5.652054E0,4.90849E1,9.815124E1,0E0,1.08298134E2,1.2501349E2,1.80646E2,3.856875E2,0E0,3.930957E1,1.3828906E2,0E0,0E0,0E0,0E0,0E0,0E0,0E0,0E0,0E0,0E0,0E0,0E0,0E0,0E0,0E0,0E0,0E0,0E0,0E0],"parents":[2147483647,0,0,1,1,2,2,3,3,4,4,6,6,11,11,12,12,13,13,14,14,15,15,16,16,18,18,19,19,20,20,21,21,22,22,23,23,24,24,27,27,28,28,29,29,31,31,32,32,33,33,34,34,36,36,37,37],"right_children":[2,4,6,8,10,-1,12,-1,-1,-1,-1,14,16,18,20,22,24,-1,26,28,30,32,34,36,38,-1,-1,40,42,44,-1,46,48,50,52,-1,54,56,-1,-1,-1,-1,-1,-1,-1,-1,-1,-1,-1,-1,-1,-1,-1,-1,-1,-1,-1],"split_conditions":[5.4E1,2.5E1,6E1,6E0,4E1,-1.4631317E0,9.5E1,-1.4691168E0,-1.0866535E0,-8.1685394E-1,-4.8292875E-1,7E1,1.14E2,6.3E1,8.3E1,8.9E1,1.24E2,-2.5901505E-1,9.1E1,2E1,1E-1,7.5E1,1E2,1.04E2,1.28E2,-2.5979137E-2,-8.4944725E-2,7.9E1,4.542857E1,1.1547005E0,3.676057E-1,1.1857142E0,8.1E1,8.2E1,7.0666664E1,5.654072E-1,1.069E2,9.414286E1,1.4902093E0,9.857588E-2,2.4500516E-1,-1.8170185E-1,7.931825E-2,1.7969857E-1,-1.12509385E-1,5.807252E-2,-2.4046753E-1,1.4385705E-1,3.4741467E-1,4.3528175E-1,7.504022E-1,7.5080603E-1,1.2542382E-1,8.857997E-1,2.1971302E-1,1.1221728E0,5.4141665E-1],"split_indices":[4,4,0,4,4,0,4,0,0,0,0,4,0,4,4,0,4,0,14,32,5,0,0,4,0,0,0,4,40,57,0,48,18,11,62,0,33,40,0,0,0,0,0,0,0,0,0,0,0,0,0,0,0,0,0,0,0],"split_type":[0,0,0,0,0,0,0,0,0,0,0,0,0,0,0,0,0,0,0,0,0,0,0,0,0,0,0,0,0,0,0,0,0,0,0,0,0,0,0,0,0,0,0,0,0,0,0,0,0,0,0,0,0,0,0,0,0],"sum_hessian":[7.01E2,2.13E2,4.88E2,1.48E2,6.5E1,3E1,4.58E2,1.19E2,2.9E1,3.3E1,3.2E1,1.09E2,3.49E2,3.1E1,7.8E1,1.84E2,1.65E2,2.3E1,8E0,3.5E1,4.3E1,4.5E1,1.39E2,6.5E1,1E2,3E0,5E0,9E0,2.6E1,1E1,3.3E1,1.1E1,3.4E1,5.6E1,8.3E1,2.1E1,4.4E1,3.8E1,6.2E1,3E0,6E0,1E0,2.5E1,6E0,4E0,7E0,4E0,1.8E1,1.6E1,4.9E1,7E0,8E1,3E0,4.3E1,1E0,3.4E1,4E0],"tree_param":{"num_deleted":"0","num_feature":"83","num_nodes":"57","size_leaf_vector":"1"}},{"base_weights":[2.3393743E-1,1.1033488E1,-1.7940807E1,-2.6252038E0,1.5993212E1,-2.6134327E1,-5.172085E0,-1.4176576E0,1.8529525E0,1.1309008E1,2.2225054E1,1.2810503E-1,-2.6506718E1,-8.574108E0,9.885323E0,3.4792967E0,-6.674768E0,1.2093497E1,5.269963E-1,2.5235214E1,1.7613724E1,-1.1333938E0,-1.4065064E0,-9.898842E0,1.09596E1,4.65414E0,6.4924663E-1,1.4221629E0,5.9123034E0,-7.1528583E0,2.436695E-2,9.384031E0,1.4882879E1,-2.503167E0,2.48855E0,2.1296988E1,3.0027725E1,1.8824724E1,7.5405054E0,-8.20053E0,-1.5910006E1,1.6926975E1,-4.7193176E-1,1.0480753E-1,2.9694885E-1,-5.6394704E-2,3.568891E0,4.795061E0,1.1444167E1,-3.684669E-1,-9.7641565E-2,1.0031806E1,3.0043197E0,1.5999108E1,9.411178E0,4.1684467E-2,-1.8930069E-1,1.7536303E-1,3.3834648E-1,2.1528154E1,2.5502473E-1,3.1553062E1,7.2825444E-1,1.5279699E1,2.3330254E1,1.6143799E-3,8.608496E0,-9.816582E0,-3.686266E0,-8.20371E-1,-1.9878463E-1,9.3535376E-1,2.451643E-1,-1.2212562E-2,2.0073129E-2,-2.2781192E-1,3.0616874E-2,2.172011E-1,1.8734742E-2,2.904982E-1,3.2175925E-2,2.2053173E-1,6.929137E-1,6.5563697E-1,3.9911702E-1,2.8519574E-1,-4.18029E-2,8.266179E-1,2.880195E-1,4.8433477E-1,1.2507248E-1,2.2263145E-2,-1.913681E-2,-1.1733246E-2,3.0378595E-2,2.6313668E-1,1.0881127E0,1.5992334E0,4.6512356E-1,1.8946762E-1,7.7640593E-1,1.1950842E0,2.9754066E-1,1.2919693E-1,4.5909658E-1,-5.2193105E-1,-1.1896614E-1,-2.6767635E-1,1.9521724E-1],"categories":[],"categories_nodes":[],"categories_segments":[],"categories_sizes":[],"default_left":[0,0,0,0,0,0,0,0,0,0,0,0,0,0,0,0,0,0,0,0,0,0,0,0,0,0,0,0,0,0,0,0,0,0,0,0,0,0,0,0,0,0,0,0,0,0,0,0,0,0,0,0,0,0,0,0,0,0,0,0,0,0,0,0,0,0,0,0,0,0,0,0,0,0,0,0,0,0,0,0,0,0,0,0,0,0,0,0,0,0,0,0,0,0,0,0,0,0,0,0,0,0,0,0,0,0,0,0,0],"id":18,"left_children":[1,3,5,7,9,11,13,-1,15,17,19,-1,21,23,25,27,29,31,33,35,37,-1,-1,39,41,43,-1,45,47,49,-1,51,53,55,57,59,61,63,65,67,69,71,-1,73,-1,75,77,79,81,-1,-1,83,85,87,89,91,-1,-1,93,95,-1,97,-1,99,101,-1,103,105,107,-1,-1,-1,-1,-1,-1,-1,-1,-1,-1,-1,-1,-1,-1,-1,-1,-1,-1,-1,-1,-1,-1,-1,-1,-1,-1,-1,-1,-1,-1,-1,-1,-1,-1,-1,-1,-1,-1,-1,-1],"loss_changes":[1.4112633E5,3.059423E4,2.7903203E4,1.3993403E4,9.410945E3,1.8097734E3,5.514677E3,0E0,1.4656005E3,1.6091758E3,1.5127188E3,0E0,3.6570312E2,2.3597832E3,2.6385852E2,4.3203357E2,6.1696106E1,1.2056152E3,8.944284E1,9.2704297E2,5.7777344E2,0E0,0E0,7.066538E2,8.901109E2,5.1983917E1,0E0,1.5573026E2,1.923418E2,3.6201782E0,0E0,3.541953E2,3.7468945E2,1.9745743E1,1.8527248E1,7.36543E1,3.6592578E2,4.7407422E2,6.3871643E1,4.4530176E2,3.5686035E1,1.52907715E1,0E0,4.0870786E-1,0E0,9.306566E1,4.789073E1,1.4373065E2,4.0754456E1,0E0,0E0,4.2572852E2,1.0844343E2,2.8695312E2,8.133057E0,6.842793E-1,0E0,0E0,7.5965273E-1,6.824219E1,0E0,1.71875E-1,0E0,3.25E1,6.632031E1,0E0,4.5739746E-1,1.9722412E2,2.6135706E2,0E0,0E0,0E0,0E0,0E0,0E0,0E0,0E0,0E0,0E0,0E0,0E0,0E0,0E0,0E0,0E0,0E0,0E0,0E0,0E0,0E0,0E0,0E0,0E0,0E0,0E0,0E0,0E0,0E0,0E0,0E0,0E0,0E0,0E0,0E0,0E0,0E0,0E0,0E0,0E0],"parents":[2147483647,0,0,1,1,2,2,3,3,4,4,5,5,6,6,8,8,9,9,10,10,12,12,13,13,14,14,15,15,16,16,17,17,18,18,19,19,20,20,23,23,24,24,25,25,27,27,28,28,29,29,31,31,32,32,33,33,34,34,35,35,36,36,37,37,38,38,39,39,40,40,41,41,43,43,45,45,46,46,47,47,48,48,51,51,52,52,53,53,54,54,55,55,58,58,59,59,61,61,63,63,64,64,66,66,67,67,68,68],"right_children":[2,4,6,8,10,12,14,-1,16,18,20,-1,22,24,26,28,30,32,34,36,38,-1,-1,40,42,44,-1,46,48,50,-1,52,54,56,58,60,62,64,66,68,70,72,-1,74,-1,76,78,80,82,-1,-1,84,86,88,90,92,-1,-1,94,96,-1,98,-1,100,102,-1,104,106,108,-1,-1,-1,-1,-1,-1,-1,-1,-1,-1,-1,-1,-1,-1,-1,-1,-1,-1,-1,-1,-1,-1,-1,-1,-1,-1,-1,-1,-1,-1,-1,-1,-1,-1,-1,-1,-1,-1,-1,-1],"split_conditions":[1.3E0,9.2E1,1E0,6E1,1.19E2,2E0,1E0,-1.4176576E0,1.2E1,2.8E1,4E-1,1.2810503E-1,1E0,1.48E2,1.07E2,8.4E1,8.7E1,1.04E2,2E0,2E0,4.3E1,-1.1333938E0,-1.4065064E0,3.2E0,2E0,1.06E2,6.4924663E-1,1E0,4.6E0,4E1,2.436695E-2,1.15E2,5E-1,1.67E2,9.8E1,6E0,6.2206852E1,1.44E2,1.24E2,1.38E2,2.32E2,1.8E0,-4.7193176E-1,1.02E2,2.9694885E-1,7E1,9.65E1,3.1E1,3.6E1,-3.684669E-1,-9.7641565E-2,4.82E1,5.21664E1,1.49E2,4E0,3E0,-1.8930069E-1,1.7536303E-1,1.04E2,2.1E1,2.5502473E-1,8.1828575E1,7.2825444E-1,6.714286E0,5.5E0,1.6143799E-3,1.34E2,4E0,4E-1,-8.20371E-1,-1.9878463E-1,9.3535376E-1,2.451643E-1,-1.2212562E-2,2.0073129E-2,-2.2781192E-1,3.0616874E-2,2.172011E-1,1.8734742E-2,2.904982E-1,3.2175925E-2,2.2053173E-1,6.929137E-1,6.5563697E-1,3.9911702E-1,2.8519574E-1,-4.18029E-2,8.266179E-1,2.880195E-1,4.8433477E-1,1.2507248E-1,2.2263145E-2,-1.913681E-2,-1.1733246E-2,3.0378595E-2,2.6313668E-1,1.0881127E0,1.5992334E0,4.6512356E-1,1.8946762E-1,7.7640593E-1,1.1950842E0,2.9754066E-1,1.2919693E-1,4.5909658E-1,-5.2193105E-1,-1.1896614E-1,-2.6767635E-1,1.9521724E-1],"split_indices":[5,0,1,0,0,11,26,0,6,6,5,0,26,0,17,0,17,0,10,1,6,0,0,5,5,0,0,29,24,2,0,28,5,3,14,37,43,0,0,20,3,5,0,0,0,0,31,29,2,0,0,30,39,18,1,1,0,0,0,2,0,52,0,64,25,0,0,1,22,0,0,0,0,0,0,0,0,0,0,0,0,0,0,0,0,0,0,0,0,0,0,0,0,0,0,0,0,0,0,0,0,0,0,0,0,0,0,0,0],"split_type":[0,0,0,0,0,0,0,0,0,0,0,0,0,0,0,0,0,0,0,0,0,0,0,0,0,0,0,0,0,0,0,0,0,0,0,0,0,0,0,0,0,0,0,0,0,0,0,0,0,0,0,0,0,0,0,0,0,0,0,0,0,0,0,0,0,0,0,0,0,0,0,0,0,0,0,0,0,0,0,0,0,0,0,0,0,0,0,0,0,0,0,0,0,0,0,0,0,0,0,0,0,0,0,0,0,0,0,0,0],"sum_hessian":[7.17E2,4.5E2,2.67E2,1.2E2,3.3E2,1.62E2,1.05E2,1.7E1,1.03E2,1.9E2,1.4E2,2E0,1.6E2,8.6E1,1.9E1,8.7E1,1.6E1,1.77E2,1.3E1,8.2E1,5.8E1,5.2E1,1.08E2,8.1E1,5E0,8E0,1.1E1,4.8E1,3.9E1,1.5E1,1E0,9.2E1,8.5E1,5E0,8E0,4.8E1,3.4E1,5.1E1,7E0,6.5E1,1.6E1,4E0,1E0,2E0,6E0,2.9E1,1.9E1,3.4E1,5E0,1.4E1,1E0,8.3E1,9E0,6.9E1,1.6E1,2E0,3E0,5E0,3E0,4.7E1,1E0,3E1,4E0,3.1E1,2E1,1E0,6E0,4.7E1,1.8E1,1.5E1,1E0,3E0,1E0,1E0,1E0,3E0,2.6E1,1.5E1,4E0,2.7E1,7E0,2E0,3E0,3.1E1,5.2E1,5E0,4E0,6.5E1,4E0,1.5E1,1E0,1E0,1E0,1E0,2E0,1E0,4.6E1,2.9E1,1E0,1E0,3E1,1.9E1,1E0,1E0,5E0,4.3E1,4E0,1.5E1,3E0],"tree_param":{"num_deleted":"0","num_feature":"83","num_nodes":"109","size_leaf_vector":"1"}},{"base_weights":[1.667241E-1,-2.1239092E1,9.259506E0,-1.312211E0,-1.48366E1,1.0890009E1,-1.3034477E0,-1.3918468E0,-1.3303582E1,1.0949023E0,1.3836339E1,-8.500406E-1,-1.016484E1,1.9342706E0,-1.0815963E0,1.4413333E1,-1.1400433E0,-5.489859E-1,-3.7929013E-1,-3.525071E0,3.9138482E0,6.7294555E0,1.6502365E1,-2.3770742E-1,-1.0816574E0,2.3053803E0,5.3483944E0,9.181786E0,2.7152205E0,1.9306042E1,1.1858494E1,-7.318442E-2,-1.6524125E-2,1.6897248E-1,5.5802118E-2,9.98595E-2,3.3331156E-1,6.8862027E-1,3.634506E-1,3.94655E-2,3.0725604E-1,7.107467E-1,1.1868712E0,4.5957786E-1,7.9152745E-1],"categories":[],"categories_nodes":[],"categories_segments":[],"categories_sizes":[],"default_left":[0,0,0,0,0,0,0,0,0,0,0,0,0,0,0,0,0,0,0,0,0,0,0,0,0,0,0,0,0,0,0,0,0,0,0,0,0,0,0,0,0,0,0,0,0],"id":19,"left_children":[1,3,5,-1,7,9,-1,-1,11,13,15,-1,17,19,-1,21,-1,-1,-1,23,25,27,29,-1,31,33,35,37,39,41,43,-1,-1,-1,-1,-1,-1,-1,-1,-1,-1,-1,-1,-1,-1],"loss_changes":[1.3644356E5,6.308086E3,2.8624637E4,0E0,1.5030664E3,1.3577727E4,0E0,0E0,8.251885E2,2.1402217E3,7.981117E3,0E0,1.9688965E1,1.170166E3,0E0,5.6194688E3,0E0,0E0,0E0,8.194882E1,1.6995618E2,7.4291943E2,3.4166328E3,0E0,2.6729689E0,4.6048203E1,1.6775623E2,3.2136743E2,1.9992574E2,3.5655625E3,9.9856055E2,0E0,0E0,0E0,0E0,0E0,0E0,0E0,0E0,0E0,0E0,0E0,0E0,0E0,0E0],"parents":[2147483647,0,0,1,1,2,2,4,4,5,5,8,8,9,9,10,10,12,12,13,13,15,15,19,19,20,20,21,21,22,22,24,24,25,25,26,26,27,27,28,28,29,29,30,30],"right_children":[2,4,6,-1,8,10,-1,-1,12,14,16,-1,18,20,-1,22,-1,-1,-1,24,26,28,30,-1,32,34,36,38,40,42,44,-1,-1,-1,-1,-1,-1,-1,-1,-1,-1,-1,-1,-1,-1],"split_conditions":[5.2E1,1.6E1,1E0,-1.312211E0,1E0,9.5E1,-1.3034477E0,-1.3918468E0,3.4E1,3.1E0,2.7E0,-8.500406E-1,4.6E1,7.1E1,-1.0815963E0,1.67E2,-1.1400433E0,-5.489859E-1,-3.7929013E-1,6.3E1,8.3E1,1E0,1.99E2,-2.3770742E-1,6.9E1,1E0,1E-1,3.0280436E1,8.1E1,1.3E2,1E0,-7.318442E-2,-1.6524125E-2,1.6897248E-1,5.5802118E-2,9.98595E-2,3.3331156E-1,6.8862027E-1,3.634506E-1,3.94655E-2,3.0725604E-1,7.107467E-1,1.1868712E0,4.5957786E-1,7.9152745E-1],"split_indices":[4,4,70,0,6,4,0,0,4,5,5,0,4,4,0,3,0,0,0,4,4,76,3,0,4,34,5,65,18,4,75,0,0,0,0,0,0,0,0,0,0,0,0,0,0],"split_type":[0,0,0,0,0,0,0,0,0,0,0,0,0,0,0,0,0,0,0,0,0,0,0,0,0,0,0,0,0,0,0,0,0,0,0,0,0,0,0,0,0,0,0,0,0],"sum_hessian":[6.99E2,2.08E2,4.91E2,1.15E2,9.3E1,4.7E2,2.1E1,8E0,8.5E1,1.09E2,3.61E2,3.7E1,4.8E1,1.06E2,3E0,3.56E2,5E0,3.4E1,1.4E1,2.8E1,7.8E1,7.7E1,2.79E2,1.8E1,1E1,3.8E1,4E1,4.7E1,3E1,1.72E2,1.07E2,6E0,4E0,1.9E1,1.9E1,1.2E1,2.8E1,1.2E1,3.5E1,2E1,1E1,8.2E1,9E1,6.6E1,4.1E1],"tree_param":{"num_deleted":"0","num_feature":"83","num_nodes":"45","size_leaf_vector":"1"}},{"base_weights":[1.463874E-1,-1.9294704E1,9.509553E0,-2.369318E1,-1.07452135E1,-1.260363E0,1.1509218E1,-1.2651055E0,-9.4570285E-1,-1.3012733E0,-8.97205E0,6.7392344E0,1.788334E1,-5.4791516E-1,-3.12728E-1,3.7962365E0,9.546121E0,8.496658E0,2.1617699E1,2.4414869E-1,5.026102E0,1.7131864E0,1.1653054E1,3.221486E0,1.0605351E1,1.838208E1,2.4917006E1,-3.5182996E0,1.143907E0,-4.2880595E-1,5.650851E0,-1.0017973E0,3.8482797E0,1.2207614E1,1.9868186E0,3.938961E-1,2.4925263E-1,3.9146912E-1,1.17547655E1,1.8510843E1,2.2134323E-1,2.0596788E1,1.5899596E0,5.075722E-2,-2.2215322E-1,-1.7898198E-2,1.8170281E-1,-9.847862E-2,3.6649976E-2,3.2283947E-1,8.102882E-2,-1.2270279E-1,3.8842943E-3,9.647179E-2,2.2435057E-1,6.353747E-1,1.8397959E-1,-2.0219574E-2,2.654948E-1,-6.500244E-5,3.9470863E-2,1.6722928E-1,5.974798E-1,6.3734627E-1,9.606142E-1,1.0725725E0,4.8200774E-1],"categories":[],"categories_nodes":[],"categories_segments":[],"categories_sizes":[],"default_left":[0,0,0,0,0,0,0,0,0,0,0,0,0,0,0,0,0,0,0,0,0,0,0,0,0,0,0,0,0,0,0,0,0,0,0,0,0,0,0,0,0,0,0,0,0,0,0,0,0,0,0,0,0,0,0,0,0,0,0,0,0,0,0,0,0,0,0],"id":20,"left_children":[1,3,5,7,9,-1,11,-1,-1,-1,13,15,17,-1,-1,19,21,23,25,27,29,31,33,35,37,39,41,43,45,47,49,51,53,55,57,59,-1,-1,61,63,-1,65,-1,-1,-1,-1,-1,-1,-1,-1,-1,-1,-1,-1,-1,-1,-1,-1,-1,-1,-1,-1,-1,-1,-1,-1,-1],"loss_changes":[1.3215536E5,8.620125E3,3.430689E4,7.1327344E2,1.9882383E3,0E0,1.3987148E4,0E0,0E0,0E0,3.3628223E2,2.1693564E3,6.7568555E3,0E0,0E0,5.7542664E2,2.2245078E3,6.110112E2,1.0471953E3,1.225099E2,3.364021E2,1.7775748E2,5.493203E2,8.779599E1,3.8788086E1,5.2820312E1,1.3371133E3,3.3856926E1,1.0975746E2,2.1134476E1,2.7537378E2,2.2138287E1,1.2178253E1,3.8380273E2,5.777051E1,1.2514937E0,0E0,0E0,4.274658E0,5.428711E1,0E0,2.0523047E2,0E0,0E0,0E0,0E0,0E0,0E0,0E0,0E0,0E0,0E0,0E0,0E0,0E0,0E0,0E0,0E0,0E0,0E0,0E0,0E0,0E0,0E0,0E0,0E0,0E0],"parents":[2147483647,0,0,1,1,2,2,3,3,4,4,6,6,10,10,11,11,12,12,15,15,16,16,17,17,18,18,19,19,20,20,21,21,22,22,23,23,24,24,25,25,26,26,27,27,28,28,29,29,30,30,31,31,32,32,33,33,34,34,35,35,38,38,39,39,41,41],"right_children":[2,4,6,8,10,-1,12,-1,-1,-1,14,16,18,-1,-1,20,22,24,26,28,30,32,34,36,38,40,42,44,46,48,50,52,54,56,58,60,-1,-1,62,64,-1,66,-1,-1,-1,-1,-1,-1,-1,-1,-1,-1,-1,-1,-1,-1,-1,-1,-1,-1,-1,-1,-1,-1,-1,-1,-1],"split_conditions":[5.9E1,3.1E1,6E1,5E0,1.2E1,-1.260363E0,1.14E2,-1.2651055E0,-9.4570285E-1,-1.3012733E0,4.7E1,9.6E1,1.11E2,-5.4791516E-1,-3.12728E-1,8.2E1,9E1,8.9E1,1.38E2,1E0,7.5E1,7.3E1,1.77E2,7.5E1,1E2,7.857143E1,1.38E2,7.5E1,1.3142858E0,6.9E1,4.3285713E1,6.7E1,7.9E1,1.15E2,8.9E1,7.1E1,2.4925263E-1,3.9146912E-1,6.7142856E-1,1.2E2,2.2134323E-1,1.39E2,1.5899596E0,5.075722E-2,-2.2215322E-1,-1.7898198E-2,1.8170281E-1,-9.847862E-2,3.6649976E-2,3.2283947E-1,8.102882E-2,-1.2270279E-1,3.8842943E-3,9.647179E-2,2.2435057E-1,6.353747E-1,1.8397959E-1,-2.0219574E-2,2.654948E-1,-6.500244E-5,3.9470863E-2,1.6722928E-1,5.974798E-1,6.3734627E-1,9.606142E-1,1.0725725E0,4.8200774E-1],"split_indices":[4,4,0,4,0,0,0,0,0,0,4,0,4,0,0,0,4,4,4,19,4,4,20,4,4,66,0,4,48,4,64,4,4,28,15,4,0,0,46,0,0,17,0,0,0,0,0,0,0,0,0,0,0,0,0,0,0,0,0,0,0,0,0,0,0,0,0],"split_type":[0,0,0,0,0,0,0,0,0,0,0,0,0,0,0,0,0,0,0,0,0,0,0,0,0,0,0,0,0,0,0,0,0,0,0,0,0,0,0,0,0,0,0,0,0,0,0,0,0,0,0,0,0,0,0,0,0,0,0,0,0,0,0,0,0,0,0],"sum_hessian":[7.24E2,2.35E2,4.89E2,1.54E2,8.1E1,2.6E1,4.63E2,1.12E2,4.2E1,7E0,7.4E1,2.66E2,1.97E2,4.1E1,3.3E1,1.31E2,1.35E2,5.7E1,1.4E2,3.4E1,9.7E1,2.9E1,1.06E2,1.7E1,4E1,7.4E1,6.6E1,6E0,2.8E1,1E1,8.7E1,1.3E1,1.6E1,1E2,6E0,7E0,1E1,1.4E1,2.6E1,7.3E1,1E0,4.3E1,2.3E1,1E0,5E0,1.8E1,1E1,4E0,6E0,7.2E1,1.5E1,5E0,8E0,5E0,1.1E1,9.4E1,6E0,4E0,2E0,4E0,3E0,1E0,2.5E1,1E1,6.3E1,3.9E1,4E0],"tree_param":{"num_deleted":"0","num_feature":"83","num_nodes":"67","size_leaf_vector":"1"}},{"base_weights":[-3.0252206E-1,-1.9046415E1,8.146039E0,-1.175867E0,-1.2253559E1,-1.20426E0,1.0194737E1,-1.2257092E0,-1.0940005E1,2.1381226E0,1.3092651E1,-7.12954E-1,-8.397854E0,-2.7909966E0,4.010442E0,6.0119963E0,1.6956741E1,-4.639298E-1,-2.9731825E-1,-4.091198E0,-5.4846627E-1,1.9617983E0,5.1980224E0,2.2496755E0,8.153724E0,1.302439E1,1.9795708E1,-5.904751E-2,-2.0867728E-1,-7.378166E-2,-3.0036163E-2,3.0521414E0,7.6246643E-1,2.4185436E0,6.5241156E0,-4.5224667E0,2.8273242E0,8.721221E0,-1.0978445E-1,4.5617923E-1,1.4197943E1,1.678751E1,2.528178E1,-1.5029068E-2,1.002121E-2,6.8028025E-2,2.0024574E-1,-8.736313E-2,8.021682E-2,1.8532148E-1,-6.021309E-2,2.631306E-1,3.6981693E-1,2.1196366E-3,-3.029109E-1,1.8636833E-1,-4.9349383E-2,1.8644867E-2,4.599889E-1,-1.0785389E-1,1.3282675E-1,4.565284E-1,7.9856724E-1,3.2113457E-1,8.6100304E-1,1.3651803E0,8.891718E-1],"categories":[],"categories_nodes":[],"categories_segments":[],"categories_sizes":[],"default_left":[0,0,0,0,0,0,0,0,0,0,0,0,0,0,0,0,0,0,0,0,0,0,0,0,0,0,0,0,0,0,0,0,0,0,0,0,0,0,0,0,0,0,0,0,0,0,0,0,0,0,0,0,0,0,0,0,0,0,0,0,0,0,0,0,0,0,0],"id":21,"left_children":[1,3,5,-1,7,-1,9,-1,11,13,15,-1,17,19,21,23,25,-1,-1,27,29,31,33,35,37,39,41,-1,-1,-1,43,45,47,49,51,53,55,57,59,-1,61,63,65,-1,-1,-1,-1,-1,-1,-1,-1,-1,-1,-1,-1,-1,-1,-1,-1,-1,-1,-1,-1,-1,-1,-1,-1],"loss_changes":[1.1417358E5,6.514789E3,3.30635E4,0E0,1.1973691E3,0E0,1.0898574E4,0E0,5.890117E2,1.1648037E3,9.309996E3,0E0,5.278247E1,9.980707E1,2.111991E2,9.727744E2,2.220539E3,0E0,0E0,3.435669E-1,6.6850758E0,4.3441742E1,1.9431445E2,1.9273476E2,3.6673975E2,3.0993066E2,1.6714883E3,0E0,0E0,0E0,6.837432E-1,2.3561539E1,4.0834774E1,9.777872E1,2.8878174E0,2.8298767E1,1.5129968E2,2.8821484E2,3.9711155E1,0E0,5.0120117E2,2.7048242E2,1.663418E2,0E0,0E0,0E0,0E0,0E0,0E0,0E0,0E0,0E0,0E0,0E0,0E0,0E0,0E0,0E0,0E0,0E0,0E0,0E0,0E0,0E0,0E0,0E0,0E0],"parents":[2147483647,0,0,1,1,2,2,4,4,6,6,8,8,9,9,10,10,12,12,13,13,14,14,15,15,16,16,19,19,20,20,21,21,22,22,23,23,24,24,25,25,26,26,30,30,31,31,32,32,33,33,34,34,35,35,36,36,37,37,38,38,40,40,41,41,42,42],"right_children":[2,4,6,-1,8,-1,10,-1,12,14,16,-1,18,20,22,24,26,-1,-1,28,30,32,34,36,38,40,42,-1,-1,-1,44,46,48,50,52,54,56,58,60,-1,62,64,66,-1,-1,-1,-1,-1,-1,-1,-1,-1,-1,-1,-1,-1,-1,-1,-1,-1,-1,-1,-1,-1,-1,-1,-1],"split_conditions":[5.4E1,2E1,6E1,-1.175867E0,1.2E1,-1.20426E0,9.6E1,-1.2257092E0,3.7E1,7.2E1,1.03E2,-7.12954E-1,4.9E1,6.3E1,8.3E1,8.9E1,1.26E2,-4.639298E-1,-2.9731825E-1,3E0,6.5E1,1E0,3E0,7E1,5.6857143E1,1.04E2,1.33E2,-5.904751E-2,-2.0867728E-1,-7.378166E-2,1.5428572E0,7.8E1,1E0,1.4142135E0,9E1,6.6E1,3.9855026E1,1.780729E1,1.99E2,4.5617923E-1,1E0,2.0766666E1,4.263389E1,-1.5029068E-2,1.002121E-2,6.8028025E-2,2.0024574E-1,-8.736313E-2,8.021682E-2,1.8532148E-1,-6.021309E-2,2.631306E-1,3.6981693E-1,2.1196366E-3,-3.029109E-1,1.8636833E-1,-4.9349383E-2,1.8644867E-2,4.599889E-1,-1.0785389E-1,1.3282675E-1,4.565284E-1,7.9856724E-1,3.2113457E-1,8.6100304E-1,1.3651803E0,8.891718E-1],"split_indices":[4,4,0,0,0,0,4,0,4,4,0,0,4,4,4,0,4,0,0,12,4,34,6,0,64,4,0,0,0,0,48,4,6,57,4,0,67,53,3,0,6,50,55,0,0,0,0,0,0,0,0,0,0,0,0,0,0,0,0,0,0,0,0,0,0,0,0],"split_type":[0,0,0,0,0,0,0,0,0,0,0,0,0,0,0,0,0,0,0,0,0,0,0,0,0,0,0,0,0,0,0,0,0,0,0,0,0,0,0,0,0,0,0,0,0,0,0,0,0,0,0,0,0,0,0,0,0,0,0,0,0,0,0,0,0,0,0],"sum_hessian":[7.19E2,2.23E2,4.96E2,1.33E2,9E1,2.9E1,4.67E2,7E0,8.3E1,1.24E2,3.43E2,3.4E1,4.9E1,3.4E1,9E1,1.22E2,2.21E2,3.4E1,1.5E1,2.1E1,1.3E1,3.4E1,5.6E1,4.5E1,7.7E1,9.5E1,1.26E2,1E0,2E1,4E0,9E0,1.7E1,1.7E1,1.9E1,3.7E1,3E0,4.2E1,7.2E1,5E0,2.4E1,7.1E1,8.4E1,4.2E1,4E0,5E0,7E0,1E1,4E0,1.3E1,1.4E1,5E0,1.8E1,1.9E1,1E0,2E0,3.4E1,8E0,4E0,6.8E1,3E0,2E0,2E1,5.1E1,4E0,8E1,3.1E1,1.1E1],"tree_param":{"num_deleted":"0","num_feature":"83","num_nodes":"67","size_leaf_vector":"1"}},{"base_weights":[-6.6107504E-2,-1.8296753E1,8.162354E0,-2.1543285E1,-1.049348E1,-1.1465006E0,1.0272069E1,-1.1397718E0,-1.667045E1,-7.222306E-1,-8.189627E0,2.2540135E0,1.3122053E1,-1.2457004E0,-1.2376468E1,-4.6040154E-1,-3.0152568E-1,-2.602339E0,4.4502473E0,6.6638913E0,1.7256807E1,-6.8589437E-1,-2.921162E-1,-1.9698071E-1,-5.1735973E-1,6.8081725E-1,5.077745E0,8.784335E-1,8.074678E0,1.2074609E1,1.9296219E1,-1.1035798E0,3.9400592E-1,-2.3338394E0,2.2799802E0,3.840586E0,6.8405037E0,-6.873474E-1,4.086367E0,8.528743E0,-9.1452026E-1,1.2350256E1,1.3602842E-1,1.5429312E1,2.2553066E1,-2.164383E-2,-6.645922E-2,5.2134197E-5,2.7549133E-2,1.1582438E-2,-2.0606907E-1,1.9072638E-1,4.3847594E-2,6.5612875E-2,2.1829925E-1,1.4430733E-1,3.6896536E-1,8.8011436E-2,-1.5330945E-1,3.355156E-1,3.2257464E-2,3.2986984E-1,5.3472704E-1,-3.980001E-4,-6.8290524E-2,4.5386177E-1,6.798092E-1,4.7007227E-1,8.266699E-1,9.28065E-1,1.3469076E0],"categories":[],"categories_nodes":[],"categories_segments":[],"categories_sizes":[],"default_left":[0,0,0,0,0,0,0,0,0,0,0,0,0,0,0,0,0,0,0,0,0,0,0,0,0,0,0,0,0,0,0,0,0,0,0,0,0,0,0,0,0,0,0,0,0,0,0,0,0,0,0,0,0,0,0,0,0,0,0,0,0,0,0,0,0,0,0,0,0,0,0],"id":22,"left_children":[1,3,5,7,9,-1,11,-1,13,-1,15,17,19,-1,21,-1,-1,23,25,27,29,-1,-1,-1,31,33,35,37,39,41,43,45,47,49,51,53,55,57,59,61,63,65,-1,67,69,-1,-1,-1,-1,-1,-1,-1,-1,-1,-1,-1,-1,-1,-1,-1,-1,-1,-1,-1,-1,-1,-1,-1,-1,-1,-1],"loss_changes":[1.0515646E5,5.2966562E3,3.191842E4,5.5352344E2,4.824912E2,0E0,1.0322078E4,0E0,9.3057227E2,0E0,4.1220215E1,1.2914633E3,8.80377E3,0E0,1.389812E2,0E0,0E0,1.03913086E2,1.9286353E2,1.0702979E3,1.9124414E3,0E0,0E0,0E0,8.982988E0,6.799316E1,1.2856616E2,1.3842764E2,4.4045752E2,1.2110449E2,1.4655469E3,9.377651E-1,4.3122816E-1,2.3884298E1,1.6031967E1,5.2719482E1,3.835962E1,1.16022705E2,7.6936935E1,3.51917E2,2.4438581E0,1.1310547E2,0E0,3.037793E2,8.303164E2,0E0,0E0,0E0,0E0,0E0,0E0,0E0,0E0,0E0,0E0,0E0,0E0,0E0,0E0,0E0,0E0,0E0,0E0,0E0,0E0,0E0,0E0,0E0,0E0,0E0,0E0],"parents":[2147483647,0,0,1,1,2,2,3,3,4,4,6,6,8,8,10,10,11,11,12,12,14,14,17,17,18,18,19,19,20,20,24,24,25,25,26,26,27,27,28,28,29,29,30,30,31,31,32,32,33,33,34,34,35,35,36,36,37,37,38,38,39,39,40,40,41,41,43,43,44,44],"right_children":[2,4,6,8,10,-1,12,-1,14,-1,16,18,20,-1,22,-1,-1,24,26,28,30,-1,-1,-1,32,34,36,38,40,42,44,46,48,50,52,54,56,58,60,62,64,66,-1,68,70,-1,-1,-1,-1,-1,-1,-1,-1,-1,-1,-1,-1,-1,-1,-1,-1,-1,-1,-1,-1,-1,-1,-1,-1,-1,-1],"split_conditions":[5.4E1,1E0,6E1,1.6E1,3.6E1,-1.1465006E0,9.8E1,-1.1397718E0,1.3E1,-7.222306E-1,4.7E1,7.3E1,1.06E2,-1.2457004E0,3.6E1,-4.6040154E-1,-3.0152568E-1,6.3E1,8.1E1,8.5E1,1.2E2,-6.8589437E-1,-2.921162E-1,-1.9698071E-1,7E1,1.0714285E0,9E1,7.5E1,1.08E2,1.069E2,1.28E2,9.1E1,2.5E1,8.1E1,8E0,7.9E1,2E-1,9.3333334E-1,8.7E1,9.6E1,1.01E2,1.05E2,1.3602842E-1,6.350853E-1,1.41E2,-2.164383E-2,-6.645922E-2,5.2134197E-5,2.7549133E-2,1.1582438E-2,-2.0606907E-1,1.9072638E-1,4.3847594E-2,6.5612875E-2,2.1829925E-1,1.4430733E-1,3.6896536E-1,8.8011436E-2,-1.5330945E-1,3.355156E-1,3.2257464E-2,3.2986984E-1,5.3472704E-1,-3.980001E-4,-6.8290524E-2,4.5386177E-1,6.798092E-1,4.7007227E-1,8.266699E-1,9.28065E-1,1.3469076E0],"split_indices":[4,1,0,4,4,0,4,0,0,0,4,4,0,0,4,0,0,4,0,0,4,0,0,0,4,60,4,14,14,33,0,14,2,4,28,4,5,44,14,0,0,4,0,45,4,0,0,0,0,0,0,0,0,0,0,0,0,0,0,0,0,0,0,0,0,0,0,0,0,0,0],"split_type":[0,0,0,0,0,0,0,0,0,0,0,0,0,0,0,0,0,0,0,0,0,0,0,0,0,0,0,0,0,0,0,0,0,0,0,0,0,0,0,0,0,0,0,0,0,0,0,0,0,0,0,0,0,0,0,0,0,0,0,0,0,0,0,0,0,0,0,0,0,0,0],"sum_hessian":[6.99E2,2.17E2,4.82E2,1.52E2,6.5E1,3E1,4.52E2,1.18E2,3.4E1,2.2E1,4.3E1,1.19E2,3.33E2,1E1,2.4E1,2.7E1,1.6E1,3.7E1,8.2E1,1.31E2,2.02E2,1.9E1,5E0,2.2E1,1.5E1,1.2E1,7E1,2.6E1,1.05E2,5.9E1,1.43E2,9E0,6E0,4E0,8E0,4.3E1,2.7E1,1.8E1,8E0,1E2,5E0,5.7E1,2E0,6.8E1,7.5E1,3E0,6E0,2E0,4E0,2E0,2E0,3E0,5E0,8E0,3.5E1,4E0,2.3E1,9E0,9E0,4E0,4E0,5.5E1,4.5E1,2E0,3E0,1.8E1,3.9E1,1.2E1,5.6E1,4.2E1,3.3E1],"tree_param":{"num_deleted":"0","num_feature":"83","num_nodes":"71","size_leaf_vector":"1"}},{"base_weights":[7.580977E-2,-1.6857252E1,8.09658E0,-2.080714E1,-1.006758E1,-1.0904223E0,1.0008524E1,-1.0873553E0,-8.208192E-1,-1.135298E0,-8.695054E0,5.4090056E0,1.4410555E1,-5.2067804E-1,-5.879846E0,1.8912667E0,7.5509214E0,6.390173E0,1.7941639E1,-3.3081022E-1,-2.2775681E-1,-7.054184E-1,2.6165192E0,1.6612586E0,9.249175E0,-1.266813E0,8.3583355E0,1.52024765E1,2.1147957E1,9.8579484E-1,-2.178756E0,-3.561554E-1,3.5952044E0,-8.9003426E-1,3.3641007E0,6.9987683E0,1.1372333E1,-2.2757068E0,3.5543713E-1,2.8022054E-1,4.813451E-1,1.5819238E1,8.563116E0,1.59906225E1,2.5733725E1,7.821832E-2,-4.4283044E-2,-1.6155683E-1,2.353468E-2,-2.151475E-1,3.6003344E-2,1.0439166E-1,2.7779046E-1,-1.0331885E-1,-3.4565394E-4,7.877172E-2,1.9276468E-1,2.540147E-1,5.7387173E-1,5.9686106E-1,-1.1990776E-1,-1.2355298E-1,-1.29383085E-2,2.935537E-3,2.3119278E-2,8.131062E-1,3.7125912E-1,9.910164E-2,4.9803162E-1,8.1167394E-1,1.8119489E-1,1.3095344E0,2.3207627E-1],"categories":[],"categories_nodes":[],"categories_segments":[],"categories_sizes":[],"default_left":[0,0,0,0,0,0,0,0,0,0,0,0,0,0,0,0,0,0,0,0,0,0,0,0,0,0,0,0,0,0,0,0,0,0,0,0,0,0,0,0,0,0,0,0,0,0,0,0,0,0,0,0,0,0,0,0,0,0,0,0,0,0,0,0,0,0,0,0,0,0,0,0,0],"id":23,"left_children":[1,3,5,7,9,-1,11,-1,-1,-1,13,15,17,-1,19,21,23,25,27,-1,-1,29,31,33,35,37,39,41,43,45,47,49,51,53,55,57,59,61,63,-1,-1,65,67,69,71,-1,-1,-1,-1,-1,-1,-1,-1,-1,-1,-1,-1,-1,-1,-1,-1,-1,-1,-1,-1,-1,-1,-1,-1,-1,-1,-1,-1],"loss_changes":[9.887486E4,6.0660312E3,2.8463582E4,2.496875E2,1.3290635E3,0E0,9.337008E3,0E0,0E0,0E0,3.3064404E2,1.711166E3,6.59734E3,0E0,2.0524902E0,1.6757199E2,1.4049385E3,1.1257832E3,1.1188516E3,0E0,0E0,5.198237E1,2.0202304E2,1.4636098E2,4.4598438E2,2.699572E1,1.5216553E2,2.4126953E2,1.3149746E3,1.2213207E1,3.2191383E1,7.955571E1,1.4207904E2,1.4529661E1,1.14978485E1,4.228545E2,4.5646143E2,3.300724E0,1.9499391E-1,0E0,0E0,1.878125E2,7.222943E1,5.22959E1,2.3505469E2,0E0,0E0,0E0,0E0,0E0,0E0,0E0,0E0,0E0,0E0,0E0,0E0,0E0,0E0,0E0,0E0,0E0,0E0,0E0,0E0,0E0,0E0,0E0,0E0,0E0,0E0,0E0,0E0],"parents":[2147483647,0,0,1,1,2,2,3,3,4,4,6,6,10,10,11,11,12,12,14,14,15,15,16,16,17,17,18,18,21,21,22,22,23,23,24,24,25,25,26,26,27,27,28,28,29,29,30,30,31,31,32,32,33,33,34,34,35,35,36,36,37,37,38,38,41,41,42,42,43,43,44,44],"right_children":[2,4,6,8,10,-1,12,-1,-1,-1,14,16,18,-1,20,22,24,26,28,-1,-1,30,32,34,36,38,40,42,44,46,48,50,52,54,56,58,60,62,64,-1,-1,66,68,70,72,-1,-1,-1,-1,-1,-1,-1,-1,-1,-1,-1,-1,-1,-1,-1,-1,-1,-1,-1,-1,-1,-1,-1,-1,-1,-1,-1,-1],"split_conditions":[5.7E1,2.5E1,6E1,5E0,1.2E1,-1.0904223E0,1.09E2,-1.0873553E0,-8.208192E-1,-1.135298E0,4.4E1,9.1E1,1.11E2,-5.2067804E-1,5.2E1,8.3E1,9.1E1,7.4E1,1.33E2,-3.3081022E-1,-2.2775681E-1,5E-1,8.1E1,7.4E1,1E2,6.7E1,9.6E1,5.688025E1,1.36E2,1.6E1,9.4285715E-1,7E1,7.5E1,6.4E1,7.9E1,2.3E1,5.04E1,7.8E1,8.2E1,2.8022054E-1,4.813451E-1,1.46E2,1.13E2,7.857143E1,1.55E2,7.821832E-2,-4.4283044E-2,-1.6155683E-1,2.353468E-2,-2.151475E-1,3.6003344E-2,1.0439166E-1,2.7779046E-1,-1.0331885E-1,-3.4565394E-4,7.877172E-2,1.9276468E-1,2.540147E-1,5.7387173E-1,5.9686106E-1,-1.1990776E-1,-1.2355298E-1,-1.29383085E-2,2.935537E-3,2.3119278E-2,8.131062E-1,3.7125912E-1,9.910164E-2,4.9803162E-1,8.1167394E-1,1.8119489E-1,1.3095344E0,2.3207627E-1],"split_indices":[4,4,0,4,0,0,0,0,0,0,4,0,4,0,4,4,4,4,0,0,0,25,0,4,0,4,4,67,4,9,46,0,14,4,4,9,64,6,14,0,0,18,0,66,17,0,0,0,0,0,0,0,0,0,0,0,0,0,0,0,0,0,0,0,0,0,0,0,0,0,0,0,0],"split_type":[0,0,0,0,0,0,0,0,0,0,0,0,0,0,0,0,0,0,0,0,0,0,0,0,0,0,0,0,0,0,0,0,0,0,0,0,0,0,0,0,0,0,0,0,0,0,0,0,0,0,0,0,0,0,0,0,0,0,0,0,0,0,0,0,0,0,0,0,0,0,0,0,0],"sum_hessian":[7.26E2,2.33E2,4.93E2,1.46E2,8.7E1,2.9E1,4.64E2,1.17E2,2.9E1,7E0,8E1,2.28E2,2.36E2,4.8E1,3.2E1,8.7E1,1.41E2,7.3E1,1.63E2,1.8E1,1.4E1,1.9E1,6.8E1,3.2E1,1.09E2,1.5E1,5.8E1,9.1E1,7.2E1,9E0,1E1,1.7E1,5.1E1,1.3E1,1.9E1,5.5E1,5.4E1,9E0,6E0,2E1,3.8E1,8.2E1,9E0,3.6E1,3.6E1,7E0,2E0,7E0,3E0,3E0,1.4E1,3E1,2.1E1,5E0,8E0,5E0,1.4E1,4E1,1.5E1,5.2E1,2E0,8E0,1E0,2E0,4E0,7.7E1,5E0,2E0,7E0,3.5E1,1E0,3.5E1,1E0],"tree_param":{"num_deleted":"0","num_feature":"83","num_nodes":"73","size_leaf_vector":"1"}},{"base_weights":[-2.2086921E-1,-1.616614E1,7.887363E0,-1.9425217E1,-9.148242E0,-1.0257436E0,9.454703E0,-1.0369529E0,-7.870648E-1,-1.0865492E0,-7.60162E0,5.444743E0,1.3813983E1,-4.44772E-1,-2.581856E-1,2.1325667E0,7.2731557E0,6.5042243E0,1.732217E1,2.846168E0,-1.3873174E0,1.8705682E0,8.887121E0,-1.04288E0,7.9052415E0,1.353811E1,1.8905449E1,2.383038E0,5.003918E-1,-1.9392681E-1,7.0444363E-1,-1.3066489E0,3.3208096E0,7.4839153E0,1.1181247E1,-1.0890376E-1,4.5532736E-1,2.6553237E-1,9.374566E0,7.6910644E0,7.474324E-1,1.7120258E1,1.2550467E0,3.7270784E-2,1.7216457E-1,1.4870262E-1,-4.630181E-2,-1.1986561E-1,-9.256526E-3,9.747248E-2,1.8729068E-1,3.901185E-1,-1.3798904E-1,4.505644E-2,5.9744596E-1,5.5009206E-3,3.0023862E-2,4.7418186E-1,1.362009E-1,4.6529006E-2,4.1370273E-1,8.710477E-1,1.7977129E-1],"categories":[],"categories_nodes":[],"categories_segments":[],"categories_sizes":[],"default_left":[0,0,0,0,0,0,0,0,0,0,0,0,0,0,0,0,0,0,0,0,0,0,0,0,0,0,0,0,0,0,0,0,0,0,0,0,0,0,0,0,0,0,0,0,0,0,0,0,0,0,0,0,0,0,0,0,0,0,0,0,0,0,0],"id":24,"left_children":[1,3,5,7,9,-1,11,-1,-1,-1,13,15,17,-1,-1,19,21,23,25,27,29,31,33,35,37,39,41,43,-1,-1,45,47,49,51,53,-1,55,-1,57,59,-1,61,-1,-1,-1,-1,-1,-1,-1,-1,-1,-1,-1,-1,-1,-1,-1,-1,-1,-1,-1,-1,-1],"loss_changes":[9.2051234E4,5.311547E3,2.1205498E4,4.6247266E2,1.3527476E3,0E0,7.7560703E3,0E0,0E0,0E0,1.7801611E2,1.4076553E3,5.3751523E3,0E0,0E0,2.1745099E2,1.3000342E3,7.5897144E2,6.0678906E2,2.1164258E2,8.089773E1,1.702175E2,2.8973926E2,2.1400826E1,1.7895312E2,2.644131E2,6.6521875E2,1.1550134E2,0E0,0E0,3.6059044E1,1.423457E1,7.268524E0,2.6619385E2,3.2068652E2,0E0,2.3466575E-1,0E0,1.0053711E0,3.565454E1,0E0,2.627129E2,0E0,0E0,0E0,0E0,0E0,0E0,0E0,0E0,0E0,0E0,0E0,0E0,0E0,0E0,0E0,0E0,0E0,0E0,0E0,0E0,0E0],"parents":[2147483647,0,0,1,1,2,2,3,3,4,4,6,6,10,10,11,11,12,12,15,15,16,16,17,17,18,18,19,19,20,20,21,21,22,22,23,23,24,24,25,25,26,26,27,27,30,30,31,31,32,32,33,33,34,34,36,36,38,38,39,39,41,41],"right_children":[2,4,6,8,10,-1,12,-1,-1,-1,14,16,18,-1,-1,20,22,24,26,28,30,32,34,36,38,40,42,44,-1,-1,46,48,50,52,54,-1,56,-1,58,60,-1,62,-1,-1,-1,-1,-1,-1,-1,-1,-1,-1,-1,-1,-1,-1,-1,-1,-1,-1,-1,-1,-1],"split_conditions":[5.7E1,3.1E1,6E1,4E0,1.2E1,-1.0257436E0,1.12E2,-1.0369529E0,-7.870648E-1,-1.0865492E0,4.7E1,9.2E1,1.11E2,-4.44772E-1,-2.581856E-1,7.63E1,9.1E1,7.5E1,1.28E2,9E1,8.48E1,7.4E1,1.5571429E0,6.5E1,9.6E1,1E0,1.46E2,4.1E1,5.003918E-1,-1.9392681E-1,6.901428E1,6.7E1,7.9E1,4.2785713E1,5.714286E-1,-1.0890376E-1,7.1E1,2.6553237E-1,1.06E2,1.13E2,7.474324E-1,4E0,1.2550467E0,3.7270784E-2,1.7216457E-1,1.4870262E-1,-4.630181E-2,-1.1986561E-1,-9.256526E-3,9.747248E-2,1.8729068E-1,3.901185E-1,-1.3798904E-1,4.505644E-2,5.9744596E-1,5.5009206E-3,3.0023862E-2,4.7418186E-1,1.362009E-1,4.6529006E-2,4.1370273E-1,8.710477E-1,1.7977129E-1],"split_indices":[4,4,0,4,0,0,0,0,0,0,4,0,4,0,0,52,4,4,4,11,30,4,48,4,4,6,0,17,0,0,54,4,4,66,60,0,4,0,33,0,0,8,0,0,0,0,0,0,0,0,0,0,0,0,0,0,0,0,0,0,0,0,0],"split_type":[0,0,0,0,0,0,0,0,0,0,0,0,0,0,0,0,0,0,0,0,0,0,0,0,0,0,0,0,0,0,0,0,0,0,0,0,0,0,0,0,0,0,0,0,0,0,0,0,0,0,0,0,0,0,0,0,0,0,0,0,0,0,0],"sum_hessian":[7.1E2,2.39E2,4.71E2,1.62E2,7.7E1,2.4E1,4.47E2,1.16E2,4.6E1,7E0,7E1,2.34E2,2.13E2,4.4E1,2.6E1,8.4E1,1.5E2,7E1,1.43E2,7E1,1.4E1,3.5E1,1.15E2,1.1E1,5.9E1,4.5E1,9.8E1,6.7E1,3E0,6E0,8E0,1.1E1,2.4E1,7.4E1,4.1E1,6E0,5E0,2.3E1,3.6E1,1E1,3.5E1,7.9E1,1.9E1,2.7E1,4E1,3E0,5E0,5E0,6E0,7E0,1.7E1,7.2E1,2E0,3E0,3.8E1,2E0,3E0,3.5E1,1E0,1E0,9E0,7.7E1,2E0],"tree_param":{"num_deleted":"0","num_feature":"83","num_nodes":"63","size_leaf_vector":"1"}},{"base_weights":[-1.4693676E-1,-1.5665353E1,6.8397346E0,-1.8430151E1,-8.533622E0,-1.8522402E1,8.663771E0,-9.785456E-1,-7.165274E-1,-9.273942E-1,-7.572885E0,-9.8882E-1,-4.1733246E0,4.5845337E0,1.2918934E1,-4.4221106E-1,-2.82219E-1,2.9212951E-3,-2.801692E-1,-2.9627624E-1,5.737424E0,5.182902E0,1.6222704E1,-3.2200263E0,1.1748574E0,2.5749953E0,7.335449E0,-1.4791516E0,7.1842356E0,1.3877441E1,1.9436897E1,-3.336184E0,-3.694153E-2,-1.6332284E-1,1.4234952E0,-9.442562E-1,3.2089736E0,7.702664E0,8.185015E-1,-3.0396614E0,-8.282852E-2,2.4462488E-1,4.3633673E-1,1.1244052E1,1.6075277E1,1.72618E1,1.6388367E0,-4.7067262E-2,-1.7200024E-1,1.4792859E-2,1.3032927E-1,-1.358265E-1,4.9269676E-2,8.177569E-2,2.4483441E-1,5.1220375E-1,3.1925422E-1,1.6695878E-1,-1.2684833E-1,-1.6131276E-1,-4.3337632E-2,-4.402676E-2,1.9241823E-2,5.775053E-1,1.4526176E-1,5.724913E-1,8.695491E-1,8.8851607E-1,2.9771024E-1],"categories":[],"categories_nodes":[],"categories_segments":[],"categories_sizes":[],"default_left":[0,0,0,0,0,0,0,0,0,0,0,0,0,0,0,0,0,0,0,0,0,0,0,0,0,0,0,0,0,0,0,0,0,0,0,0,0,0,0,0,0,0,0,0,0,0,0,0,0,0,0,0,0,0,0,0,0,0,0,0,0,0,0,0,0,0,0,0,0],"id":25,"left_children":[1,3,5,7,9,11,13,-1,-1,-1,15,-1,17,19,21,-1,-1,-1,-1,23,25,27,29,31,33,35,37,39,41,43,45,47,-1,-1,49,51,53,55,57,59,61,-1,-1,63,65,67,-1,-1,-1,-1,-1,-1,-1,-1,-1,-1,-1,-1,-1,-1,-1,-1,-1,